0.0937274054386927	0.0159755957799305	0.336489032585055	0.281054896269212	-0.165878390734747	-0.192622316723943	-0.482716709579086	0.384692760590505	-0.490136363424878	-0.207000988086967	-0.146833287273407	0.00285198999639792	-0.140955612199297	0.000489186896951113	0.264299786367069	0.0772743577944167	0.0697756071501074	-0.0257886752764979	-0.0257886752764979	-0.0257886752764979	-0.0257886752764979	-0.0257886752764979	-0.0257886752764979	-0.0257886752764979	-0.0257886752764979	-0.0257886752764979	-0.0257886752764979	-0.0257886752764979	-0.0257886752764979	0.143386740039378	0.0512321838490120	-0.204102466722904	0.203862788495104	0.0890015387922882	-0.199664149925238	0.101277318245782	0.148138815160388	0.0254445323925155	-0.220254342577686	0.109984651596988	0.0677309308768115	-0.220399006280134	-0.196501115423335	-0.176532346907349	0.0761977190784309	0.193480795537511	0.0123996273827810	0.0123996273827810	0.0123996273827810	0.0123996273827810	0.0123996273827810	0.0123996273827810	0.0123996273827810	0.0123996273827810	0.0123996273827810	0.0123996273827810	0.0123996273827810	0.0123996273827810	-0.0718435293594132	-0.413123016136677	0.213789110747435	-0.0391510422792387	-0.296641574307921	0.238220956630718	0.0828430749913202	-0.136059717291928	-0.247812391863198	-0.0330278441711479	-0.440720633861121	-0.376073088483274	0.161015839888533	-0.179720756120364	0.247772807725750	0.0991825053113576	-0.131854324372315	-0.0605144386696978	-0.0605144386696978	-0.0605144386696978	-0.0605144386696978	-0.0605144386696978	-0.0605144386696978	-0.0605144386696978	-0.0605144386696978	-0.0605144386696978	-0.0605144386696978	-0.0605144386696978	-0.0605144386696978	0.243349936906968	0.295688339374435	0.271827496155265	0.512364802418751	-0.0304940535955453	-0.407480543872578	0.358422714576668	0.335840709270973	-0.0284907484026541	-0.0495438918532203	-0.346651897120935	-0.266007282325601	0.00839459542674121	-0.273869027670024	-0.204892101967230	0.474387121685382	-0.317639934457528	0.0805331750592220	0.0805331750592220	0.0805331750592220	0.0805331750592220	0.0805331750592220	0.0805331750592220	0.0805331750592220	0.0805331750592220	0.0805331750592220	0.0805331750592220	0.0805331750592220	0.0805331750592220
-0.122809638124735	0.102311501502491	0.174648827450421	0.314032552546568	0.259244468018962	-0.575595290492163	-0.169939320357379	-0.978042911316007	-0.0651248608479661	-0.462565731852656	0.0918417793834977	-0.107000189538635	-0.262937505560555	-0.154079258946909	0.271536317931373	0.134034809743869	0.157404624409651	0.0111506616432915	0.0111506616432915	0.0111506616432915	0.0111506616432915	0.0111506616432915	0.0111506616432915	0.0111506616432915	0.0111506616432915	0.0111506616432915	0.0111506616432915	0.0111506616432915	0.0111506616432915	-0.248554959006552	-0.0677340473019743	0.458729493737935	-0.0683218625609658	0.0277906135432238	-0.701337109765869	0.0279537624941354	-0.0373366511526679	-0.0982224066096260	-0.0754890076027854	-0.220068754822036	-0.188236876936839	-0.108229958167310	-0.0163609885204684	-0.470090597980135	-0.117585062421844	0.201269018521306	-0.0109023282092563	-0.0109023282092563	-0.0109023282092563	-0.0109023282092563	-0.0109023282092563	-0.0109023282092563	-0.0109023282092563	-0.0109023282092563	-0.0109023282092563	-0.0109023282092563	-0.0109023282092563	-0.0109023282092563	-0.0639609352434078	0.122909480827629	-0.00421855415488921	-0.297575644008108	-0.250309689201219	0.127712169369419	0.164893569325180	0.0778901465112338	0.0527024321057742	0.0628928713120629	-0.355699655497738	-0.432682508798663	-0.0420276236460389	-0.151925321685026	0.138751679278960	0.0367724144690693	0.301765421094456	-0.0698494030230402	-0.0698494030230402	-0.0698494030230402	-0.0698494030230402	-0.0698494030230402	-0.0698494030230402	-0.0698494030230402	-0.0698494030230402	-0.0698494030230402	-0.0698494030230402	-0.0698494030230402	-0.0698494030230402	-0.310342791068664	0.0993741258555944	-0.231230626742874	0.194924603881620	0.396111216217269	0.465325583359649	-0.0276138218120669	0.289630945947794	0.0118079333844153	0.0529159857227659	0.291787430047849	-0.108899283284890	-0.302768044406870	-0.503299056535251	-0.132241100855237	-0.0188809783401202	-0.105921381227113	0.0269440481859355	0.0269440481859355	0.0269440481859355	0.0269440481859355	0.0269440481859355	0.0269440481859355	0.0269440481859355	0.0269440481859355	0.0269440481859355	0.0269440481859355	0.0269440481859355	0.0269440481859355
0.140376589474234	0.0641552816670110	-0.0402355621228488	-0.0260608807673586	-0.129836821478998	0.0534099853038667	-0.273724817398482	-0.433506397765599	-0.0160109771652522	-0.114436762686477	0.127455777662932	0.0171772160616253	-0.0316895313900552	-0.0231647257816346	0.295778247325661	0.324944883360584	-0.00850140174775693	-0.0362832410764649	-0.0362832410764649	-0.0362832410764649	-0.0362832410764649	-0.0362832410764649	-0.0362832410764649	-0.0362832410764649	-0.0362832410764649	-0.0362832410764649	-0.0362832410764649	-0.0362832410764649	-0.0362832410764649	0.272439168615766	-0.0142718462528531	0.0381998669752327	0.0751208803170960	0.293742886574449	0.0527680402309892	-0.0994975843164958	-0.134708584989570	-0.0843603759289868	0.0517893892077239	-0.0289896215548331	0.147558299295640	0.207402004929522	0.215503838157984	0.0443731766116725	0.0691067288408814	0.299936522773022	-0.00276864402669620	-0.00276864402669620	-0.00276864402669620	-0.00276864402669620	-0.00276864402669620	-0.00276864402669620	-0.00276864402669620	-0.00276864402669620	-0.00276864402669620	-0.00276864402669620	-0.00276864402669620	-0.00276864402669620	0.186308144333904	0.0171123415457750	0.0810866392853984	-0.503114461396495	-0.158596115250828	0.229754013755534	0.0260845931911796	0.117458881149647	0.0905778211051712	-0.147461719718734	0.0160383712920102	0.0109307415656058	0.0702460807228997	0.0544107772707445	-0.244914106778810	-0.294322419101993	0.0997617788499756	-0.0178304632008816	-0.0178304632008816	-0.0178304632008816	-0.0178304632008816	-0.0178304632008816	-0.0178304632008816	-0.0178304632008816	-0.0178304632008816	-0.0178304632008816	-0.0178304632008816	-0.0178304632008816	-0.0178304632008816	0.247784267897063	-0.284457227960218	-0.117178282385381	0.503488859257754	0.297731551283679	-0.417824309857252	0.0826615041891080	0.0114909004953265	-0.141178580507434	0.00544564128953255	0.0848132466704726	-0.112779009222131	-0.0800513288680908	0.0877300041571325	-0.328150963112773	-0.128104442279262	0.101784119586011	0.0428238932733981	0.0428238932733981	0.0428238932733981	0.0428238932733981	0.0428238932733981	0.0428238932733981	0.0428238932733981	0.0428238932733981	0.0428238932733981	0.0428238932733981	0.0428238932733981	0.0428238932733981
-0.0535925244463854	-0.152896946818531	-0.386202204756392	0.110242608005448	0.153184667397449	-0.0154651974080426	-0.0210268017577495	-0.146815466865560	0.0364483868084146	-0.136629983594189	0.448918702558246	-0.361330910054166	0.307622077701155	-0.273252853080092	-0.549080031728357	-0.310817797767507	0.457814940026256	-0.0411861903209729	-0.0411861903209729	-0.0411861903209729	-0.0411861903209729	-0.0411861903209729	-0.0411861903209729	-0.0411861903209729	-0.0411861903209729	-0.0411861903209729	-0.0411861903209729	-0.0411861903209729	-0.0411861903209729	0.391329019377433	0.153350050577777	0.422144969641183	-0.00934380315677903	0.177845069764314	-0.462907923492147	0.232057094774359	-0.204486748613311	0.120010035183802	0.452953758529980	0.250500713871477	-0.0568886409092888	-0.122610313370220	-0.324330132961259	0.0500573687607966	-0.0902233174401475	-0.171768042835129	0.0362378563177032	0.0362378563177032	0.0362378563177032	0.0362378563177032	0.0362378563177032	0.0362378563177032	0.0362378563177032	0.0362378563177032	0.0362378563177032	0.0362378563177032	0.0362378563177032	0.0362378563177032	0.0364623553978693	-0.0349776385809995	0.183829375320340	-0.137596698622917	-0.250936024411806	-0.0524821845434086	-0.176965763721490	-0.237623181894439	0.0591792368571691	-0.242934084862852	0.287119371884094	-0.110618134333848	0.0524632022692233	0.126879534031638	0.229810502663783	0.0964658896779592	-0.176483803604247	0.00336709311345818	0.00336709311345818	0.00336709311345818	0.00336709311345818	0.00336709311345818	0.00336709311345818	0.00336709311345818	0.00336709311345818	0.00336709311345818	0.00336709311345818	0.00336709311345818	0.00336709311345818	0.389711834237529	0.118518398208641	0.317216836374979	0.203485855001983	0.362826384948779	-0.0927772905844479	0.223826603800648	0.119407022255783	0.0309717561404520	-0.123942215076771	-0.0286390332718047	-0.422647354218283	-0.0371656694377402	-0.147132856486428	0.0690440160776337	0.139469567324032	-0.0666864801679325	0.0113428306893864	0.0113428306893864	0.0113428306893864	0.0113428306893864	0.0113428306893864	0.0113428306893864	0.0113428306893864	0.0113428306893864	0.0113428306893864	0.0113428306893864	0.0113428306893864	0.0113428306893864
-0.0431182911171096	-0.0874161254192130	-0.0807832780518150	0.177529667468745	0.0634776878999069	-0.240833197473005	0.716122380094202	-0.426950877595216	-0.223506222378163	0.0760502726923579	0.0275640362791880	-0.134146246406582	-0.194015065695867	-0.104314230419141	0.166946214630907	-0.0430386362210224	0.105572703668021	0.00972937053126676	0.00972937053126676	0.00972937053126676	0.00972937053126676	0.00972937053126676	0.00972937053126676	0.00972937053126676	0.00972937053126676	0.00972937053126676	0.00972937053126676	0.00972937053126676	0.00972937053126676	0.0264889997355511	-0.0502767992128291	0.0465558979521965	0.0863399178190142	-0.108013258770777	-0.460024936895516	-0.206726320049958	-0.0128722736807517	0.109321883940414	-0.322009432049026	0.0938173974086304	-0.0668452433676349	-0.136119070357256	-0.254004070559039	-0.536022857836452	-0.0447798691642566	0.0622459791975871	-0.0476308786948581	-0.0476308786948581	-0.0476308786948581	-0.0476308786948581	-0.0476308786948581	-0.0476308786948581	-0.0476308786948581	-0.0476308786948581	-0.0476308786948581	-0.0476308786948581	-0.0476308786948581	-0.0476308786948581	0.187459238019721	-0.00644988923570060	0.229641169150888	-0.133952344697446	0.0560145152362723	-0.291219280388177	0.0321004356307672	-0.0361154015508789	-0.0460502990885583	-0.0917824302226826	-0.248553879493318	0.0473083930473739	-0.0768257888669164	0.166009053208037	-0.173376739156455	0.174719336164555	0.226619695738771	-0.0583696831064254	-0.0583696831064254	-0.0583696831064254	-0.0583696831064254	-0.0583696831064254	-0.0583696831064254	-0.0583696831064254	-0.0583696831064254	-0.0583696831064254	-0.0583696831064254	-0.0583696831064254	-0.0583696831064254	-0.0613955930296881	-0.189687961388917	-0.570669324883208	0.357360848885775	0.107231855340226	-0.0871876512725961	0.127185880679354	0.0988855199180221	-0.128774637347048	0.214890870252475	0.566102615088259	-0.225915206744942	0.0240954830114336	-0.0655511201124154	-0.221584448275435	-0.105973301787691	-0.00307035077153082	0.103571802600951	0.103571802600951	0.103571802600951	0.103571802600951	0.103571802600951	0.103571802600951	0.103571802600951	0.103571802600951	0.103571802600951	0.103571802600951	0.103571802600951	0.103571802600951
-0.0852506443463873	-0.0191590111768032	0.0524638594742027	0.135473345696371	0.122934560679705	-0.0179120503401421	0.0407087594170312	-0.165264513129086	0.102426213471308	0.111360926604215	0.152685370040210	-0.142926298671831	-0.0525578024814480	0.00332605447024534	-0.0367585769729469	0.270813844545500	0.0808747243495314	-0.0338436638266076	-0.0338436638266076	-0.0338436638266076	-0.0338436638266076	-0.0338436638266076	-0.0338436638266076	-0.0338436638266076	-0.0338436638266076	-0.0338436638266076	-0.0338436638266076	-0.0338436638266076	-0.0338436638266076	0.0554957464323538	0.125347121221957	0.180338656004209	0.0126890545649108	0.0206295514999348	-0.148079149307572	0.0615171430491591	0.0991707080936357	-0.120888824586239	0.0384755828827334	0.0189842211671999	0.0706227646651344	0.0152699380531472	-0.0995035572144069	0.0313485008994033	0.0131455024447161	0.126679221061796	0.0225941589829738	0.0225941589829738	0.0225941589829738	0.0225941589829738	0.0225941589829738	0.0225941589829738	0.0225941589829738	0.0225941589829738	0.0225941589829738	0.0225941589829738	0.0225941589829738	0.0225941589829738	-0.0950601939415499	0.180863094825298	0.0792611210781880	-0.289387718517569	-0.0973883461164662	0.0489763597654771	0.156979046323331	-0.120869681382395	-0.234009632062339	0.0853763005672227	-0.0663560369596175	-0.157998362151959	-0.0630020092238934	-0.159496919543924	0.0739041225022313	-0.163375303721503	0.0525839149780794	0.00565753260242149	0.00565753260242149	0.00565753260242149	0.00565753260242149	0.00565753260242149	0.00565753260242149	0.00565753260242149	0.00565753260242149	0.00565753260242149	0.00565753260242149	0.00565753260242149	0.00565753260242149	-0.122474484794002	0.122191575538683	0.0527151100942589	0.138774406884619	0.312280631659607	-0.0429824067473650	0.145837542401474	0.0621420963085027	-0.103228633676808	-0.0929607644992344	-0.0718539897128620	-0.165544949956934	0.00117246315574988	-0.108318179526435	0.0295819999294731	0.108561122454784	0.0930439712427624	0.0435506668230084	0.0435506668230084	0.0435506668230084	0.0435506668230084	0.0435506668230084	0.0435506668230084	0.0435506668230084	0.0435506668230084	0.0435506668230084	0.0435506668230084	0.0435506668230084	0.0435506668230084
0.0631969783264803	0.0653118265774338	0.252076585254319	0.274830846372378	0.0939107415227286	0.100883939968101	0.329221302591914	0.177011445671933	-0.152962640327730	-0.269753253320785	0.122899396602550	0.246808436614192	-0.218260583659488	-0.321118767656702	-0.0237108614326268	0.270722512892007	0.311082883610929	0.0887626380336685	0.0887626380336685	0.0887626380336685	0.0887626380336685	0.0887626380336685	0.0887626380336685	0.0887626380336685	0.0887626380336685	0.0887626380336685	0.0887626380336685	0.0887626380336685	0.0887626380336685	0.0619993752691851	0.149977751414317	0.126278706976145	0.107386253867782	-0.00261994215149414	-0.117813223703252	0.278792189177408	0.0658191077549212	0.0626257527795237	-0.0687583605370395	0.0783707292848655	-0.162958306529919	-0.107690762764445	-0.428342838641313	0.218612350308445	-0.0709041685716680	0.181630151702193	0.0571967553062364	0.0571967553062364	0.0571967553062364	0.0571967553062364	0.0571967553062364	0.0571967553062364	0.0571967553062364	0.0571967553062364	0.0571967553062364	0.0571967553062364	0.0571967553062364	0.0571967553062364	-0.157544447626948	-0.168718160293771	0.261162064390028	-0.126228815601471	-0.333108618821079	0.0916443591904994	-0.263622403759680	0.0811089083336055	0.0593553626541573	-0.110196531006189	-0.0637143659333785	-0.268786332325842	-0.0472220280420145	-0.0147830592032444	-0.113081075615142	-0.303674674786533	0.194310424475148	-0.00132928063815412	-0.00132928063815412	-0.00132928063815412	-0.00132928063815412	-0.00132928063815412	-0.00132928063815412	-0.00132928063815412	-0.00132928063815412	-0.00132928063815412	-0.00132928063815412	-0.00132928063815412	-0.00132928063815412	0.109008775447512	0.297578910078877	0.275298657084076	0.278753036635887	0.421782954290678	-0.213291363481476	-0.132399897944969	0.207440589493747	-0.122029007314829	0.0939253421361024	0.0387446521331419	-0.100947176576199	0.0959486886329641	-0.222899839926842	0.106806241338250	-0.0740218231378902	0.0424122579890293	0.0397133322097426	0.0397133322097426	0.0397133322097426	0.0397133322097426	0.0397133322097426	0.0397133322097426	0.0397133322097426	0.0397133322097426	0.0397133322097426	0.0397133322097426	0.0397133322097426	0.0397133322097426
0.0512627691918171	0.109697052557919	-0.0177091767551503	0.772173980302389	-0.330675044360719	-0.257752299676954	0.160859506778466	-0.0707145534115255	-0.184231021624634	-0.499892610177912	-0.247925272120569	0.232828725846534	0.0424426647835972	0.263680047484679	-0.139032484226557	0.822772061391796	0.392066194459686	-0.0182876056694162	-0.0182876056694162	-0.0182876056694162	-0.0182876056694162	-0.0182876056694162	-0.0182876056694162	-0.0182876056694162	-0.0182876056694162	-0.0182876056694162	-0.0182876056694162	-0.0182876056694162	-0.0182876056694162	-0.168642021592049	-0.239112166046862	-0.324592310444780	-0.442081408772861	0.705727995357425	0.376690991192262	0.0452122420107460	-0.341498382454716	0.356419239621321	0.268685817863733	-0.255171870175749	0.269495717304311	-0.690241678847761	-0.0801466607356268	0.716783177791795	-0.187889736632265	0.523486520447591	-0.0128027599023483	-0.0128027599023483	-0.0128027599023483	-0.0128027599023483	-0.0128027599023483	-0.0128027599023483	-0.0128027599023483	-0.0128027599023483	-0.0128027599023483	-0.0128027599023483	-0.0128027599023483	-0.0128027599023483	0.136108868938004	-0.0713929234195594	0.560036145508487	-0.133748952886020	-0.121212378335358	-0.696463498352979	0.399503093183499	-0.258329765036482	0.0557406685379968	-0.205730695942106	-0.100032279709496	-0.604055176336027	0.358351192713707	0.0566426258611294	-0.224471655464675	-0.962187047639940	0.246445296843419	0.0465446563614841	0.0465446563614841	0.0465446563614841	0.0465446563614841	0.0465446563614841	0.0465446563614841	0.0465446563614841	0.0465446563614841	0.0465446563614841	0.0465446563614841	0.0465446563614841	0.0465446563614841	0.117700201754191	0.0984244324881896	-0.147846854464294	0.0622238741699779	-0.291049621942475	-0.0766753570287424	0.113965432176086	0.571938059210048	-0.172831938112746	0.483606037472549	-0.266199953544592	0.0528761349380821	0.187170629548260	-0.488505841320026	-0.356518279416799	-0.135539743351028	0.553118766665741	0.0199095981000814	0.0199095981000814	0.0199095981000814	0.0199095981000814	0.0199095981000814	0.0199095981000814	0.0199095981000814	0.0199095981000814	0.0199095981000814	0.0199095981000814	0.0199095981000814	0.0199095981000814
0.336273052588230	0.497726531560308	-0.422841569186498	0.454808054901081	0.0873821750118237	0.129031197940247	0.237373977897798	0.146540273050011	0.431629031802378	-0.0576742009355541	0.350886535381749	-0.319888686946892	-0.0213474706737276	-0.280568541678329	0.567872987024232	-0.180016783911363	0.629708381011963	0.0246660764083648	0.0246660764083648	0.0246660764083648	0.0246660764083648	0.0246660764083648	0.0246660764083648	0.0246660764083648	0.0246660764083648	0.0246660764083648	0.0246660764083648	0.0246660764083648	0.0246660764083648	-0.388735783987847	-0.439868943340941	0.385090756640358	-0.579952516508367	0.383097520683935	-0.150325537871221	0.241928730224619	0.130969136134638	0.713431921280675	-0.103400246101294	0.351196356399601	-0.0441238276312533	-0.113132625775524	-0.619681386952513	-0.108237224670809	0.0540040823395367	0.743967702591708	0.0298007565117691	0.0298007565117691	0.0298007565117691	0.0298007565117691	0.0298007565117691	0.0298007565117691	0.0298007565117691	0.0298007565117691	0.0298007565117691	0.0298007565117691	0.0298007565117691	0.0298007565117691	-0.115318353743082	0.0499644406190611	0.178874358553790	-0.397406640353105	-0.0874788320160088	0.0767592285505878	-0.238685544932241	-0.0641045675426015	-0.812446129941565	0.0493905797389838	-0.420986966064401	-0.274815766253331	0.243987428311721	0.103805752561208	-0.0728433160392399	-0.335554286945211	0.139073457637588	-0.00915278042829015	-0.00915278042829015	-0.00915278042829015	-0.00915278042829015	-0.00915278042829015	-0.00915278042829015	-0.00915278042829015	-0.00915278042829015	-0.00915278042829015	-0.00915278042829015	-0.00915278042829015	-0.00915278042829015	0.263631661073875	-0.0661010083627489	0.0847099100004653	0.220650392403949	0.282784830994858	-0.374176609054619	0.204318502237160	-0.389102060335811	-0.460705975094445	-0.102922247040385	0.430997097221543	-0.179710238923662	0.0693889020159604	-0.633425124640790	-0.0427161246602235	0.222262982961685	0.370575014861987	0.0718038083147194	0.0718038083147194	0.0718038083147194	0.0718038083147194	0.0718038083147194	0.0718038083147194	0.0718038083147194	0.0718038083147194	0.0718038083147194	0.0718038083147194	0.0718038083147194	0.0718038083147194
-0.0180422096585348	-0.142634526814072	0.438461799979099	0.625736396311571	0.516982207053808	0.200122511471426	0.515099518534460	0.222026049571013	0.399901779294099	0.129061061558001	0.284026297775810	-0.592329384433144	-0.0825233150105875	-0.136660247299337	-0.162073010973849	-0.533129586005578	-0.160373252649509	-0.0216515634834145	-0.0216515634834145	-0.0216515634834145	-0.0216515634834145	-0.0216515634834145	-0.0216515634834145	-0.0216515634834145	-0.0216515634834145	-0.0216515634834145	-0.0216515634834145	-0.0216515634834145	-0.0216515634834145	0.187642158975187	0.119469296323756	0.326264653352137	-0.390552252504810	0.192439272339941	0.0465537810631173	0.429013745790336	0.0161248348628573	-0.182495473980067	0.180614140475009	0.450812594860332	0.107949730802165	0.341891327239138	-0.281512607764112	-0.0235100151365308	0.0622793882259442	0.0300093931676244	-0.0211277528610086	-0.0211277528610086	-0.0211277528610086	-0.0211277528610086	-0.0211277528610086	-0.0211277528610086	-0.0211277528610086	-0.0211277528610086	-0.0211277528610086	-0.0211277528610086	-0.0211277528610086	-0.0211277528610086	2.21267119530771e-05	-0.230378849623896	0.168940723459594	-0.148395421804049	-0.527804139732055	-0.335794096128670	-0.610844048444345	-0.0890764258952024	0.404313287637327	0.0210069932720818	0.0531911605178321	0.0636465677977203	0.327100856448335	0.139366232883780	0.138866395952405	-0.431099228218377	0.329554224602480	0.0876449507951501	0.0876449507951501	0.0876449507951501	0.0876449507951501	0.0876449507951501	0.0876449507951501	0.0876449507951501	0.0876449507951501	0.0876449507951501	0.0876449507951501	0.0876449507951501	0.0876449507951501	0.139363931525559	0.422097194336392	0.132905422102114	0.317330910580055	0.159312386217009	0.0179901554331623	0.149148886569070	0.0959490808483205	-0.181583326042990	-0.341663635235174	-0.382677529105825	-0.00219477014014396	0.132032096925963	-0.500203281589114	-0.0503994639008679	0.193433250497619	-0.172139540324558	-0.00923206701041746	-0.00923206701041746	-0.00923206701041746	-0.00923206701041746	-0.00923206701041746	-0.00923206701041746	-0.00923206701041746	-0.00923206701041746	-0.00923206701041746	-0.00923206701041746	-0.00923206701041746	-0.00923206701041746
0.0177887168286143	0.0198298570475463	0.0280039628290831	0.0321401601112541	0.0646348764028665	-0.0347216854223970	-0.0581398922977889	-0.0619317999599924	0.0120480530380685	-0.00756301180533737	0.0292422873162394	-0.0603570838898290	0.0717194706856742	0.0224427408355702	0.0279302476735628	0.0553277214054079	-0.112403735937288	-0.0126238217704704	-0.0126238217704704	-0.0126238217704704	-0.0126238217704704	-0.0126238217704704	-0.0126238217704704	-0.0126238217704704	-0.0126238217704704	-0.0126238217704704	-0.0126238217704704	-0.0126238217704704	-0.0126238217704704	0.0372918487033005	0.0555559131240729	0.172100114772224	-0.0844630589257590	0.0297422648264656	-0.174118404483941	-0.0208930692886966	-0.0512380115848571	-0.0280704931083739	0.108166473927112	0.0177532709284527	0.00415938552302171	0.0740995925294855	0.105898448190703	0.104827961240431	0.0689563706498205	0.139104556017948	0.0141125253482376	0.0141125253482376	0.0141125253482376	0.0141125253482376	0.0141125253482376	0.0141125253482376	0.0141125253482376	0.0141125253482376	0.0141125253482376	0.0141125253482376	0.0141125253482376	0.0141125253482376	0.0266656197362870	0.0883466772644989	0.0657478365689910	-0.0732226821687956	0.0375946262589451	0.0613031392507022	0.100960124951920	-0.0115905255026969	-0.0632729247189956	-0.0616836958232247	-0.0797356478896521	-0.122666146128879	-0.0520013794665812	0.0107682836248355	0.00317179995772901	-0.0402482495579235	0.0922186977942082	-0.0232378379825196	-0.0232378379825196	-0.0232378379825196	-0.0232378379825196	-0.0232378379825196	-0.0232378379825196	-0.0232378379825196	-0.0232378379825196	-0.0232378379825196	-0.0232378379825196	-0.0232378379825196	-0.0232378379825196	0.0731118123361142	0.0399301838945761	0.177509526361730	0.0996008266223378	0.129363146577648	0.0714022557617542	-0.00533147157885760	0.0260373103365645	-0.147276617543122	-0.0593815145201668	-0.0208934145574468	-0.0779105409649301	0.00845693564556634	-0.0615286939643207	-0.0760175819104285	-0.0249429447166739	0.0455400436388022	0.0216511531914934	0.0216511531914934	0.0216511531914934	0.0216511531914934	0.0216511531914934	0.0216511531914934	0.0216511531914934	0.0216511531914934	0.0216511531914934	0.0216511531914934	0.0216511531914934	0.0216511531914934
0.0979984711129405	-0.0678451343523879	0.153743000266266	0.100968513564857	-0.241976095505187	-0.0356033677242966	0.00717774322988952	0.0603242518162694	-0.0341019721261536	-0.253993232255321	0.0762203485905948	0.0101145332089831	-0.0204408275733837	-0.224089118326004	0.0557692796216549	0.171892661772524	0.148701469081175	-0.0285213439488397	-0.0285213439488397	-0.0285213439488397	-0.0285213439488397	-0.0285213439488397	-0.0285213439488397	-0.0285213439488397	-0.0285213439488397	-0.0285213439488397	-0.0285213439488397	-0.0285213439488397	-0.0285213439488397	0.127421360168646	0.00348791266461149	0.0957273792988815	0.0626319489135852	0.0380297459298830	-0.152406739715167	0.142330978717836	0.217425915859198	0.148355316689794	-0.0193505765818091	-0.0401770251155974	0.0687402315136222	-0.0495282805083356	-0.185960762334872	-0.188213964715530	-0.0414580141465235	-0.169193216296476	0.0163077168588311	0.0163077168588311	0.0163077168588311	0.0163077168588311	0.0163077168588311	0.0163077168588311	0.0163077168588311	0.0163077168588311	0.0163077168588311	0.0163077168588311	0.0163077168588311	0.0163077168588311	0.105816541166422	-0.316721289201613	-0.000261358828676924	-0.0379050373951962	-0.259024418931741	-0.250703586133179	0.214418274490118	0.138895640004024	0.0915758209350369	-0.115795117453905	-0.0727367432423737	0.0193840223648332	0.121734634798315	-0.0365749920754385	0.0800860651446612	-0.171373483360492	-0.0608794184957153	-0.0321113330658407	-0.0321113330658407	-0.0321113330658407	-0.0321113330658407	-0.0321113330658407	-0.0321113330658407	-0.0321113330658407	-0.0321113330658407	-0.0321113330658407	-0.0321113330658407	-0.0321113330658407	-0.0321113330658407	0.218186243631784	0.0706693799800404	0.0204794306065951	0.0920351390532545	0.124007883926155	-0.296071090512773	-0.0269969773730531	-0.0246803126186455	0.0295347048314067	-0.214377969881186	-0.175632775141710	0.0153315703348785	0.00253206376133229	-0.0417261525582155	-0.278009227710481	0.0971279034509835	0.101468670005450	0.0549435281829616	0.0549435281829616	0.0549435281829616	0.0549435281829616	0.0549435281829616	0.0549435281829616	0.0549435281829616	0.0549435281829616	0.0549435281829616	0.0549435281829616	0.0549435281829616	0.0549435281829616
0.659073674402668	0.159932790909800	-0.146925767971505	0.764160404138765	-0.923330256272301	0.745770242592799	0.301176989248697	0.302488493684986	-0.255649898506028	-0.0277868534287116	-0.459514219490086	0.278011145125323	-0.233101083917248	-0.383943861541652	0.106746464222787	0.109329725096979	-0.123888449353474	0.222848755960702	0.222848755960702	0.222848755960702	0.222848755960702	0.222848755960702	0.222848755960702	0.222848755960702	0.222848755960702	0.222848755960702	0.222848755960702	0.222848755960702	0.222848755960702	0.263718355207664	-0.544337893525832	0.368201836207550	-0.0600479626687866	0.0694943112820655	-0.898930669235776	0.303588198280891	-0.0239498911195944	0.233934658400857	-0.365776089940893	-0.0632088052875596	-0.297681674335530	0.107068394463750	-0.200806364161730	0.0472590407838546	-0.290706967770784	0.125740144916259	-0.154601121264809	-0.154601121264809	-0.154601121264809	-0.154601121264809	-0.154601121264809	-0.154601121264809	-0.154601121264809	-0.154601121264809	-0.154601121264809	-0.154601121264809	-0.154601121264809	-0.154601121264809	0.0612573200311205	-0.479501872782908	0.498614770319856	-0.340561299765255	-0.318051262460236	0.0215791413333953	-0.289776049597086	-0.578006764784230	-0.730208885927062	0.374034120354873	0.252137115000250	-0.351044277826155	0.0660289654443533	-0.0208029582897870	-0.596507857862864	-0.248665714835983	-0.777145169098320	-0.0202120616513733	-0.0202120616513733	-0.0202120616513733	-0.0202120616513733	-0.0202120616513733	-0.0202120616513733	-0.0202120616513733	-0.0202120616513733	-0.0202120616513733	-0.0202120616513733	-0.0202120616513733	-0.0202120616513733	0.280149003701789	-0.564570448234417	-0.0653803416082280	0.735457431253618	0.472061479953293	-0.457212912402506	0.416443253651312	0.619562959146162	-0.138026561681935	-0.394356138486499	0.816200514862780	-0.0139901710397165	0.344455566378168	-0.272135721328773	-0.0596650792609425	0.734344827911750	0.0550505802856152	0.0942853737446258	0.0942853737446258	0.0942853737446258	0.0942853737446258	0.0942853737446258	0.0942853737446258	0.0942853737446258	0.0942853737446258	0.0942853737446258	0.0942853737446258	0.0942853737446258	0.0942853737446258
0.410963307506852	0.413150366712081	0.223921157814757	0.814945121666564	-0.239574910564853	0.404043977496669	-0.313616478761698	-0.207494843591025	-1.22701085056769	0.0551066810212265	-0.0946730443258536	0.0699817580365492	-0.216399476297534	0.350398395233513	0.123840986135574	-0.294751491198256	0.217362692787543	-0.00675024312956976	-0.00675024312956976	-0.00675024312956976	-0.00675024312956976	-0.00675024312956976	-0.00675024312956976	-0.00675024312956976	-0.00675024312956976	-0.00675024312956976	-0.00675024312956976	-0.00675024312956976	-0.00675024312956976	-0.574959626048717	-0.292449047802748	0.421227952450764	-0.383882809851100	1.02373159682271	0.321041398078212	0.175247928081630	-0.588543288583495	0.371100436597251	-0.361339334669539	0.625742476707839	0.108467100527287	-0.602847714896872	0.0319464001225377	-0.258299000675809	-0.0120039012056467	0.461528770149532	-0.0137487555119402	-0.0137487555119402	-0.0137487555119402	-0.0137487555119402	-0.0137487555119402	-0.0137487555119402	-0.0137487555119402	-0.0137487555119402	-0.0137487555119402	-0.0137487555119402	-0.0137487555119402	-0.0137487555119402	0.602004726587563	-0.868126398156911	-0.169820276300988	-0.795459674876628	0.0266146642442097	0.0905217839060844	0.0846132430782834	0.172485631262513	-0.905252145869142	0.0507887870869140	-0.0404211526268365	0.0382203110687121	0.317658911633431	-0.222296924041353	-0.510793200229835	-0.678631472285335	0.143966681972938	0.0578713336968630	0.0578713336968630	0.0578713336968630	0.0578713336968630	0.0578713336968630	0.0578713336968630	0.0578713336968630	0.0578713336968630	0.0578713336968630	0.0578713336968630	0.0578713336968630	0.0578713336968630	-0.160246494531218	0.826739754231319	0.493568170186819	0.449250553914442	0.0621222409472587	-0.672503720929177	-0.00968422849458120	0.847537986231867	-0.202624067560934	-0.744740698999031	0.526530469452489	-0.457220734790748	0.763416906954663	-0.600223097924491	-0.496593496138083	0.436448447485743	0.225329630777981	-0.0410266619955522	-0.0410266619955522	-0.0410266619955522	-0.0410266619955522	-0.0410266619955522	-0.0410266619955522	-0.0410266619955522	-0.0410266619955522	-0.0410266619955522	-0.0410266619955522	-0.0410266619955522	-0.0410266619955522
0.0305531587556661	-4.50594525692218e-05	0.0672406060499528	0.0107014712119881	0.00344051885317476	0.00804052654163692	-0.0116560148579582	-0.0431453925005419	-0.137902853079900	0.00152763080861696	0.0839321013069261	0.0229038889789866	0.0534843380547554	-0.179177182253478	0.0474353688044057	0.0485370106432646	0.105509068411092	-0.0206916859065365	-0.0206916859065365	-0.0206916859065365	-0.0206916859065365	-0.0206916859065365	-0.0206916859065365	-0.0206916859065365	-0.0206916859065365	-0.0206916859065365	-0.0206916859065365	-0.0206916859065365	-0.0206916859065365	0.0909543895112863	0.0460011068514119	0.0845910386994743	-0.0929340646003836	-0.0708042880106324	-0.0643718143819144	0.0377408628498272	0.0937893577069930	0.0658837587393692	-0.0517682404780484	-0.0119560680298105	0.0246839080518814	-0.0324172146446170	0.00615834088177497	-0.0249201851970794	0.0883517397318131	-0.0181053073945594	0.0100890856857795	0.0100890856857795	0.0100890856857795	0.0100890856857795	0.0100890856857795	0.0100890856857795	0.0100890856857795	0.0100890856857795	0.0100890856857795	0.0100890856857795	0.0100890856857795	0.0100890856857795	0.0457165159758707	-0.0449102535439669	-0.0227809068400673	-0.0383141734042472	-0.0900876052822832	0.100017350723300	-0.0211632077607277	0.0444749583506529	-0.0771829863132367	-0.0128959268937654	-0.0711590213289365	-0.0896529613101783	-0.0372881261237669	-0.0271836270520271	-0.0312124341104942	-0.00618161074955316	-0.0507156535601463	-0.0262478744322234	-0.0262478744322234	-0.0262478744322234	-0.0262478744322234	-0.0262478744322234	-0.0262478744322234	-0.0262478744322234	-0.0262478744322234	-0.0262478744322234	-0.0262478744322234	-0.0262478744322234	-0.0262478744322234	0.147323347485803	0.000433815498781549	-0.0907273898472084	-0.0388746151739798	0.0334085634392931	-0.0746444046597481	0.0333849466357522	-0.0617788802337889	-0.0845232361286108	-0.0420648184526066	-0.136896052974481	-0.115620335571565	-0.136151144318726	-0.154288157702548	-0.0895434027686674	0.0520381292953683	-0.0741278538041758	0.0461247180035791	0.0461247180035791	0.0461247180035791	0.0461247180035791	0.0461247180035791	0.0461247180035791	0.0461247180035791	0.0461247180035791	0.0461247180035791	0.0461247180035791	0.0461247180035791	0.0461247180035791
-0.0511721564445474	-0.0179025873652250	0.404932991849595	0.195143176877771	0.151719369804307	-0.0126843817488866	-0.236496322775867	0.191255244652119	-0.00644962636664381	-0.183390390844619	0.247069446055228	0.0174239219472049	-0.0930046675798401	-0.140090464596543	-0.0797536565457956	-0.133690966924302	0.183417262680886	-0.0361199267777112	-0.0361199267777112	-0.0361199267777112	-0.0361199267777112	-0.0361199267777112	-0.0361199267777112	-0.0361199267777112	-0.0361199267777112	-0.0361199267777112	-0.0361199267777112	-0.0361199267777112	-0.0361199267777112	-0.0773954762768503	0.0148415685603563	-0.132990710308482	-0.0562222553719664	-0.136469104161953	0.148484088428781	0.0339419699867587	0.110310140491884	0.194639263208671	-0.0121809915807992	0.480183307492023	0.190186052517168	-0.457444951703684	0.132426839387441	0.0798517058966372	-0.132668536487943	-0.0555995274804395	0.0330714753688150	0.0330714753688150	0.0330714753688150	0.0330714753688150	0.0330714753688150	0.0330714753688150	0.0330714753688150	0.0330714753688150	0.0330714753688150	0.0330714753688150	0.0330714753688150	0.0330714753688150	-0.0469075500810751	-0.118869417878452	-0.0582400165399441	-0.00890275566388481	0.0774066984634151	0.252335577258490	-0.165987417803904	-0.0874719896370572	-0.244367437167040	0.0637589718904178	-0.0470381890847747	-0.0543170799416700	0.0146650871926191	-0.153169643302428	0.0670894747597133	-0.128158892580535	0.315009611187465	-0.0883926519901030	-0.0883926519901030	-0.0883926519901030	-0.0883926519901030	-0.0883926519901030	-0.0883926519901030	-0.0883926519901030	-0.0883926519901030	-0.0883926519901030	-0.0883926519901030	-0.0883926519901030	-0.0883926519901030	0.331660220841038	0.441489267278298	0.322908877935668	0.279829242928749	-0.103226727665542	-0.0853465414252905	0.0797797618505443	0.131720967499955	-0.647691997041302	-0.215460171638220	-0.0964005435529128	-0.198268641813869	0.0122758427369447	-0.131995741538832	-0.218260452333483	0.127068703393076	0.00750784455132228	0.119522975329128	0.119522975329128	0.119522975329128	0.119522975329128	0.119522975329128	0.119522975329128	0.119522975329128	0.119522975329128	0.119522975329128	0.119522975329128	0.119522975329128	0.119522975329128
-0.118194404876978	-0.0410851805347547	0.119104425458607	0.110977087072350	0.387252200603766	-0.135110842444178	0.251717624772662	0.199004525210021	0.381858981130910	-0.0800109826905364	0.105093459356526	-0.240455372604659	0.0106672615873989	-0.0720477034749846	-0.0362231785832711	-0.103053047073632	0.0837572373231797	0.0269760985693311	0.0269760985693311	0.0269760985693311	0.0269760985693311	0.0269760985693311	0.0269760985693311	0.0269760985693311	0.0269760985693311	0.0269760985693311	0.0269760985693311	0.0269760985693311	0.0269760985693311	0.0659766286070388	0.242914442942244	0.194776072642869	-0.179754325801118	0.168958174966695	0.0351543413620335	0.166475589864352	0.208395094147172	0.0249578904332693	-0.158921814003935	0.188156329715251	0.0737299344768066	0.0681376604601488	0.108113534125919	0.0587498729153656	-0.156425721553802	0.266632955691571	-0.0224907090092660	-0.0224907090092660	-0.0224907090092660	-0.0224907090092660	-0.0224907090092660	-0.0224907090092660	-0.0224907090092660	-0.0224907090092660	-0.0224907090092660	-0.0224907090092660	-0.0224907090092660	-0.0224907090092660	-0.307518904963295	-0.123481169140819	0.0197815210009827	-0.0299572474592639	-0.160908589972559	-0.187132986548769	-0.0901077358568726	0.0117472178189727	-0.0765426061142512	0.122864453457501	-0.220990330429954	-0.0848014376962380	0.0642593483318919	-0.0802461689692200	-0.0657951122425019	-0.283083101555046	-0.129818675911244	0.0368405866246340	0.0368405866246340	0.0368405866246340	0.0368405866246340	0.0368405866246340	0.0368405866246340	0.0368405866246340	0.0368405866246340	0.0368405866246340	0.0368405866246340	0.0368405866246340	0.0368405866246340	0.0760108257803917	0.424356812674309	0.289204326213305	0.180132439246572	0.0598866660555037	-0.0891021830408539	0.206798746529498	-0.0135182610921829	-0.342407609424680	-0.0736111709777119	0.0954817631489991	-0.0958549548087590	-0.0454080693399784	-0.125744437047872	0.0352997392705066	-0.00633068101053648	0.226488433880432	0.0271718829524321	0.0271718829524321	0.0271718829524321	0.0271718829524321	0.0271718829524321	0.0271718829524321	0.0271718829524321	0.0271718829524321	0.0271718829524321	0.0271718829524321	0.0271718829524321	0.0271718829524321
-0.0302962066781190	-0.00868777353273185	0.0174622890347641	0.0686982349367395	0.0285733833576779	-0.00235911179348421	0.107636428774561	0.0819846662126331	0.0611477912483182	0.0197486962397084	0.0605385207135135	0.0129517498430342	0.0208591704209824	0.0308124135821271	0.0111959809969306	-0.0507433136894144	-0.0399660765028064	0.00453492318904745	0.00453492318904745	0.00453492318904745	0.00453492318904745	0.00453492318904745	0.00453492318904745	0.00453492318904745	0.00453492318904745	0.00453492318904745	0.00453492318904745	0.00453492318904745	0.00453492318904745	0.0462073916901750	0.0796199780479125	0.0630170910114625	0.0563135007559421	0.0956339250902365	0.0588767560005309	-0.0222768420637934	0.00178440061275871	-0.0324120687214269	0.0535357489462685	0.0108309486210417	0.000346370207717363	0.0237945102290473	-0.0105575767728187	-0.00488518276543100	0.0172189093679067	0.0746337658167236	0.0188367400615145	0.0188367400615145	0.0188367400615145	0.0188367400615145	0.0188367400615145	0.0188367400615145	0.0188367400615145	0.0188367400615145	0.0188367400615145	0.0188367400615145	0.0188367400615145	0.0188367400615145	0.0249916886593783	0.0979762241589372	0.0543976956885784	-0.100076227916883	-0.00374216288410086	0.0215461028479011	-0.0578109518533632	-0.0805804779737709	-0.0888369051893453	-0.0301109518926575	-0.0199094294795638	-0.0403517376340842	0.0153841158230684	-0.0236428361198357	-0.0336791120944057	-0.0156863651227969	0.0346034373248554	-0.0104110241081380	-0.0104110241081380	-0.0104110241081380	-0.0104110241081380	-0.0104110241081380	-0.0104110241081380	-0.0104110241081380	-0.0104110241081380	-0.0104110241081380	-0.0104110241081380	-0.0104110241081380	-0.0104110241081380	0.0522979650874021	0.155411276760320	0.0675672285330839	0.0663472233460300	0.0907684475897168	0.0660484527093465	-0.140451009173654	-0.0546545444077649	-0.0799400729840408	-0.0225375680988797	0.0564848931079677	0.0296632078060147	0.00487271079270300	0.00428428966681026	0.00450319628156148	0.0233475989148186	0.0653255380635431	0.0108537012227920	0.0108537012227920	0.0108537012227920	0.0108537012227920	0.0108537012227920	0.0108537012227920	0.0108537012227920	0.0108537012227920	0.0108537012227920	0.0108537012227920	0.0108537012227920	0.0108537012227920
0.0471583166619070	0.0684836633220388	-0.0962974938649185	0.160107560212959	0.276696688632639	0.122042030251063	0.0935408078054333	0.417739947973397	0.0938395669487024	-0.0948862430175851	-0.0381001739387957	-0.0180784650275289	-0.175909621349619	0.0108258650918551	-0.220412653658426	0.0835752281476011	0.307310448591102	0.00234416942179539	0.00234416942179539	0.00234416942179539	0.00234416942179539	0.00234416942179539	0.00234416942179539	0.00234416942179539	0.00234416942179539	0.00234416942179539	0.00234416942179539	0.00234416942179539	0.00234416942179539	0.0619002202456724	0.0808620147007420	-0.0821396753027460	-0.0599936973458853	0.101397861237351	-0.00498414345666171	0.197945586700526	0.191667382534618	-0.174348798255519	-0.0849691893960637	0.141627001244764	-0.109481238538467	-0.0837461958079579	-0.152599241818902	-0.176261309089706	-0.0911519498847004	0.135313708556021	0.0445800027171966	0.0445800027171966	0.0445800027171966	0.0445800027171966	0.0445800027171966	0.0445800027171966	0.0445800027171966	0.0445800027171966	0.0445800027171966	0.0445800027171966	0.0445800027171966	0.0445800027171966	-0.0431288459299371	-0.115922492706286	0.158471603894707	-0.120076748106461	-0.0923648355208324	-0.121747503396353	-0.0631555288319469	-0.0744916496642877	-0.123411033068112	-0.196708813756575	0.0618908649515373	0.00844896036578078	0.0387021681625508	-0.214403994006908	-0.246809962742530	-0.178084283667839	0.149876341271797	0.0356556377843819	0.0356556377843819	0.0356556377843819	0.0356556377843819	0.0356556377843819	0.0356556377843819	0.0356556377843819	0.0356556377843819	0.0356556377843819	0.0356556377843819	0.0356556377843819	0.0356556377843819	0.0770099562483814	0.122163353728406	-0.0271753584514610	0.145488628492108	0.0240090530229617	0.0581604081133989	0.106744713182504	0.291336395175395	-0.255453420618824	0.0658299254716322	-0.00144365583069817	-0.187134061629084	0.0971967852281598	-0.246805160400823	-0.159714022765025	0.0260877412967499	0.174110280685092	0.0777647000310796	0.0777647000310796	0.0777647000310796	0.0777647000310796	0.0777647000310796	0.0777647000310796	0.0777647000310796	0.0777647000310796	0.0777647000310796	0.0777647000310796	0.0777647000310796	0.0777647000310796
0.114240130845260	-0.0635532126932671	-0.0591522172838866	0.248907867676264	-0.273133647826440	0.0578128108719073	0.575109627495330	-0.0946955695842816	-0.0987506775851053	0.287831544156985	-0.189493285684287	0.170999492293857	0.0829973102215283	-0.0724261704182845	0.296508805746351	-0.348520828995510	0.146202096440773	0.0343663091340812	0.0343663091340812	0.0343663091340812	0.0343663091340812	0.0343663091340812	0.0343663091340812	0.0343663091340812	0.0343663091340812	0.0343663091340812	0.0343663091340812	0.0343663091340812	0.0343663091340812	0.0819609986003374	-0.0692060336221009	-0.172984272972318	-0.137382805401648	0.0313663261936251	-0.0777880781361211	-0.152459939385837	-0.232911367020750	-0.102131626842346	-0.272844421473061	-0.0502346398879675	-0.279146498522717	-0.0747129815131438	-0.0645052517962700	-0.0278847712484102	0.104945377996021	-0.0238480926369550	-0.0117349917899850	-0.0117349917899850	-0.0117349917899850	-0.0117349917899850	-0.0117349917899850	-0.0117349917899850	-0.0117349917899850	-0.0117349917899850	-0.0117349917899850	-0.0117349917899850	-0.0117349917899850	-0.0117349917899850	0.104700235037834	-0.228878816253208	-0.141324921889091	0.150629723820492	0.0299954085926926	-0.0377678383697541	-0.165884767571331	-0.0598593592057578	-0.0790233464137870	0.0703907043617570	0.000220817998912570	0.0390302479582976	-0.0446652433539554	0.0541326688341183	0.171035532810440	0.126651225924317	0.0237724212400696	-0.0267202803253284	-0.0267202803253284	-0.0267202803253284	-0.0267202803253284	-0.0267202803253284	-0.0267202803253284	-0.0267202803253284	-0.0267202803253284	-0.0267202803253284	-0.0267202803253284	-0.0267202803253284	-0.0267202803253284	0.0134356410495121	-0.217320557619646	-0.218345427003760	0.00469504553265722	-0.423131768890041	-0.0197719303278324	0.167007365784867	0.0829988568062272	-0.131476370520917	0.144242725660088	0.0417630524200279	-0.00994467408847343	0.153965166941017	0.0346423966161816	0.0124098109811450	0.116678370424620	-0.0541775470751517	0.0229324075478165	0.0229324075478165	0.0229324075478165	0.0229324075478165	0.0229324075478165	0.0229324075478165	0.0229324075478165	0.0229324075478165	0.0229324075478165	0.0229324075478165	0.0229324075478165	0.0229324075478165
-0.0612084482052493	-0.100647917829791	-0.178845406020997	0.105579702482792	0.356491751275431	-0.147461242624881	0.133318786150601	0.361503362736241	-0.129037081718553	-0.257705097370113	-0.0655883585481838	0.0798249340362713	0.120351870663570	-0.100117864264448	-0.0295709652860670	0.0768744981562939	0.225697019445096	0.0196110338000573	0.0196110338000573	0.0196110338000573	0.0196110338000573	0.0196110338000573	0.0196110338000573	0.0196110338000573	0.0196110338000573	0.0196110338000573	0.0196110338000573	0.0196110338000573	0.0196110338000573	0.261133602493765	0.186858527279603	0.314210175726991	-0.0574290651342149	0.118084791665712	-0.0832124815473796	0.0589954594248567	-0.00799778873627877	0.0775979842945729	-0.113336866604092	0.224336775795042	-0.128716963439053	0.141322010615041	0.0874710655361037	-0.102217827801772	-0.0895034515881640	0.132361445920860	0.0270860329058180	0.0270860329058180	0.0270860329058180	0.0270860329058180	0.0270860329058180	0.0270860329058180	0.0270860329058180	0.0270860329058180	0.0270860329058180	0.0270860329058180	0.0270860329058180	0.0270860329058180	-0.00739944582004850	0.0974934041909902	0.0367092005430267	-0.268066300775503	-0.363523909884274	0.0913085444909230	-0.0270630098417904	0.0551332222373407	-0.130223305251991	0.0903104812396762	-0.136373246059160	-0.110289883210456	0.0697366071682160	-0.0265470453819209	-0.00750042872276854	-0.108785327459915	0.0593343749904907	0.0461858890276925	0.0461858890276925	0.0461858890276925	0.0461858890276925	0.0461858890276925	0.0461858890276925	0.0461858890276925	0.0461858890276925	0.0461858890276925	0.0461858890276925	0.0461858890276925	0.0461858890276925	0.0629783618525989	0.205486406354529	0.141129461788640	0.213562220941156	0.299464970115700	-0.102080680223505	0.257886555981664	0.0751767860617117	-0.194805031880261	0.0674642701523252	-0.208762589651453	-0.130563173876699	0.158980012662730	-0.0834070567993791	-0.0959301376546489	-0.134775251283206	0.00495176561255922	0.0156885267254655	0.0156885267254655	0.0156885267254655	0.0156885267254655	0.0156885267254655	0.0156885267254655	0.0156885267254655	0.0156885267254655	0.0156885267254655	0.0156885267254655	0.0156885267254655	0.0156885267254655
0.00162790267275548	0.125551450647739	0.109139921917617	-0.433751605729464	0.246482049415094	-0.196484497341770	0.778558524120012	-0.351153137065169	-0.0682589197601720	-0.506897976867447	-0.298654720334729	0.109502374935035	0.0780253084519801	0.0759460712442262	-0.0839050337053651	0.0118287011060073	0.336949778961452	0.151982766175906	0.151982766175906	0.151982766175906	0.151982766175906	0.151982766175906	0.151982766175906	0.151982766175906	0.151982766175906	0.151982766175906	0.151982766175906	0.151982766175906	0.151982766175906	-0.277033807334894	-0.438587300537483	0.0367497247899321	0.0502417758006681	0.345603352560212	-0.0982621278720442	-0.0443722217811164	-0.479820908394518	0.914637708355568	-0.330701750298884	0.114299506948684	-0.433524487150217	-0.313828579063971	-0.273999454813313	-0.253295603440433	0.139822065882370	0.595869208891906	0.0525584589833289	0.0525584589833289	0.0525584589833289	0.0525584589833289	0.0525584589833289	0.0525584589833289	0.0525584589833289	0.0525584589833289	0.0525584589833289	0.0525584589833289	0.0525584589833289	0.0525584589833289	0.132422421318042	0.343982879545209	0.292371547028095	0.211900041348726	-0.0980946720649150	0.461683859399304	-0.537633091117410	-0.253978406068204	-0.400267378802746	-0.122444859878614	0.425938502467361	-0.571668815514207	0.660207637517402	-0.216813111510608	0.0959304930529672	-0.368771198825643	0.217699775803511	-0.118624244734588	-0.118624244734588	-0.118624244734588	-0.118624244734588	-0.118624244734588	-0.118624244734588	-0.118624244734588	-0.118624244734588	-0.118624244734588	-0.118624244734588	-0.118624244734588	-0.118624244734588	0.506383812960429	0.114187135532401	-0.365400896027144	0.376577369172155	0.450495697962196	-0.432705481737419	0.199372786686855	0.318058956051234	-0.637954031531028	0.467376175407006	0.473077267569718	-0.00428370919811238	-0.193066089624335	-0.377201482088524	0.226515536665207	-0.0896381752438913	-0.111334885245761	0.0451097450177925	0.0451097450177925	0.0451097450177925	0.0451097450177925	0.0451097450177925	0.0451097450177925	0.0451097450177925	0.0451097450177925	0.0451097450177925	0.0451097450177925	0.0451097450177925	0.0451097450177925
0.0134923175368192	0.0301019072549321	0.0727812930190342	-0.0620883571573557	0.248610794423996	0.0179333135872739	-0.0463674070947471	-0.113270142595424	-0.125764421722460	-0.0972213140587847	0.0377233171359030	-0.0968411316850090	-0.107522198603686	0.0132334253099831	-0.0487363564415852	0.0181277960620297	0.0133126568032501	0.00380064163496966	0.00380064163496966	0.00380064163496966	0.00380064163496966	0.00380064163496966	0.00380064163496966	0.00380064163496966	0.00380064163496966	0.00380064163496966	0.00380064163496966	0.00380064163496966	0.00380064163496966	0.0311289600718894	0.0319696233662765	0.169127269989623	-0.0203596429994280	-0.0105966935720054	-0.104129708911129	0.0757097745411431	0.00454249083832451	0.0758207633766714	0.0177233903095252	0.0444711418112706	-0.0394725166002896	0.0316888097440083	0.0271450852576031	0.0448830333609412	0.0118587304601715	0.0592335643016146	0.00812272931518134	0.00812272931518134	0.00812272931518134	0.00812272931518134	0.00812272931518134	0.00812272931518134	0.00812272931518134	0.00812272931518134	0.00812272931518134	0.00812272931518134	0.00812272931518134	0.00812272931518134	0.0356865901299254	0.152863572476990	0.176576285084337	-0.0972446630387880	-0.00767296739809850	0.0616969716149898	0.0610563739259573	-0.0227378234522710	0.0564992801330646	-0.0934680344190908	-0.0396277879642710	-0.125006430369461	-0.0648506688501849	-0.00170689632999657	-0.0332260154166319	-0.0739742804954185	0.0552106197549635	-0.00125628203167637	-0.00125628203167637	-0.00125628203167637	-0.00125628203167637	-0.00125628203167637	-0.00125628203167637	-0.00125628203167637	-0.00125628203167637	-0.00125628203167637	-0.00125628203167637	-0.00125628203167637	-0.00125628203167637	0.0449196715230140	0.103739333137593	0.186050965528683	0.116523130297535	0.294796670774793	0.0321967702354416	-0.0148900738604220	0.0884306244007483	0.0847640051650723	0.00688696287514447	-0.0589238779129612	-0.0797680296741663	-0.0456125054515286	-0.0382956090194298	-0.0528638737309502	-0.0870491917358329	0.0196742983493535	0.0101499345656961	0.0101499345656961	0.0101499345656961	0.0101499345656961	0.0101499345656961	0.0101499345656961	0.0101499345656961	0.0101499345656961	0.0101499345656961	0.0101499345656961	0.0101499345656961	0.0101499345656961
0.0138088018810080	0.100604215948602	0.136346734918160	0.0658274037245953	0.0278814955636984	0.173629895522456	0.103027475097027	-0.298455070874577	-0.534273641904779	-0.110024028164545	-0.248076796537051	-0.225641335078476	0.0385391829683463	-0.00715724556986184	0.332028787819564	0.0394257266679950	0.102308425592593	0.0310221350712792	0.0310221350712792	0.0310221350712792	0.0310221350712792	0.0310221350712792	0.0310221350712792	0.0310221350712792	0.0310221350712792	0.0310221350712792	0.0310221350712792	0.0310221350712792	0.0310221350712792	-0.132838177276903	-0.131026144600103	0.0291818912040791	-0.122925282175271	0.0790670188858561	-0.160848398042101	0.144300645337172	0.0102871439851207	0.224457421609881	-0.00698275902791695	0.142936289848093	-0.0263394008905598	-0.243940224653939	-0.221577416215852	0.182276343661025	0.157766717851748	0.210107519837438	-0.00408144674379398	-0.00408144674379398	-0.00408144674379398	-0.00408144674379398	-0.00408144674379398	-0.00408144674379398	-0.00408144674379398	-0.00408144674379398	-0.00408144674379398	-0.00408144674379398	-0.00408144674379398	-0.00408144674379398	0.00279091853332759	0.283218754492542	0.465982134664216	-0.0570580671863490	0.137558797510656	-0.00639646297019065	0.160669799720174	-0.159708850202018	-0.294130391409175	-0.201584916511969	-0.229935325711745	-0.567203915036731	-0.0484031168540284	-0.0550021956742173	-0.149672844356550	-0.136410903078332	-0.0497279472972778	-0.0359264380346983	-0.0359264380346983	-0.0359264380346983	-0.0359264380346983	-0.0359264380346983	-0.0359264380346983	-0.0359264380346983	-0.0359264380346983	-0.0359264380346983	-0.0359264380346983	-0.0359264380346983	-0.0359264380346983	0.245051600969210	0.187271568222662	-0.0775877973229692	0.0824562247712168	0.165426511572263	-0.144501474325251	-0.0965438337074449	0.0347172389736674	-0.134490411490222	0.00170165777650640	0.0163515792886307	-0.0232215932069555	-0.0928302255939744	-0.142342184022690	0.194608119726910	0.0787401748380564	0.0674101832912138	0.0331016394321561	0.0331016394321561	0.0331016394321561	0.0331016394321561	0.0331016394321561	0.0331016394321561	0.0331016394321561	0.0331016394321561	0.0331016394321561	0.0331016394321561	0.0331016394321561	0.0331016394321561
0.106317782377692	0.0709755755799365	0.0481498538197813	-0.0576463940217553	0.0656932006819007	-0.112844707549432	-0.0945845444514954	-0.260546370516197	-0.128934964380435	0.0275188432697108	-0.109227461913956	-0.0440371643012218	-0.0545887546241924	-0.0449429327455369	0.131313714712514	0.0972503750021688	0.107233202474758	0.0287753170952909	0.0287753170952909	0.0287753170952909	0.0287753170952909	0.0287753170952909	0.0287753170952909	0.0287753170952909	0.0287753170952909	0.0287753170952909	0.0287753170952909	0.0287753170952909	0.0287753170952909	0.131951058689309	0.0988198844604330	-0.0615056817531500	-0.0601623282617112	-0.127922528320490	-0.112578052913389	0.0816799025642849	-0.0505500011002660	-0.0583104939698569	-0.0576406648537584	0.0358992506386260	-0.00560650284420886	-0.0152564274125431	0.101814166913769	0.0327141596333219	-0.0157521670633716	0.111259473266557	-0.0279293041865474	-0.0279293041865474	-0.0279293041865474	-0.0279293041865474	-0.0279293041865474	-0.0279293041865474	-0.0279293041865474	-0.0279293041865474	-0.0279293041865474	-0.0279293041865474	-0.0279293041865474	-0.0279293041865474	0.0853114592704193	0.0351252816822908	-0.00359400047438488	0.0489789426515069	0.0577291417274375	0.139524142340588	0.0375054215767353	-0.0223842715669188	-0.123928546517570	-0.0571698099118994	0.0273309142706082	0.0300745595340698	0.0248992430129043	0.0342488712302287	0.0183336453799141	0.0106832111124235	0.0215505490505642	0.0334709865169122	0.0334709865169122	0.0334709865169122	0.0334709865169122	0.0334709865169122	0.0334709865169122	0.0334709865169122	0.0334709865169122	0.0334709865169122	0.0334709865169122	0.0334709865169122	0.0334709865169122	0.125411827884973	0.0747841800503987	-0.0645263503422275	0.0904211698117576	0.0184165867569087	0.187340316992713	0.000124030302378184	-0.00590560164860565	-0.112349511045584	-0.0322323924065836	0.00366772437073789	-0.0675333265653872	0.00748997515596905	0.0326504290300918	0.0154026540342486	-0.0233488123619234	0.0123208234381260	0.00303118687505201	0.00303118687505201	0.00303118687505201	0.00303118687505201	0.00303118687505201	0.00303118687505201	0.00303118687505201	0.00303118687505201	0.00303118687505201	0.00303118687505201	0.00303118687505201	0.00303118687505201
0.170009419172883	-0.0315257938347953	0.202448725644647	0.121511697208435	-0.299934469848884	0.0546146982489700	0.403113947914649	-0.354793378448122	-0.197510149120024	-0.404983689806193	0.0936238321605813	0.0774275695250232	-0.131104201206345	0.0720948156831119	-0.0888227177783364	0.266534401629783	0.0492167599691761	0.00610530641781526	0.00610530641781526	0.00610530641781526	0.00610530641781526	0.00610530641781526	0.00610530641781526	0.00610530641781526	0.00610530641781526	0.00610530641781526	0.00610530641781526	0.00610530641781526	0.00610530641781526	0.315348336130987	0.112984968704327	-0.125075454718748	-0.0345681038762586	0.0202239237146665	-0.335112087119919	0.386481396856733	-0.0639469738300759	0.147047464121850	0.0530521162246814	0.358528824707963	-0.0852008483602154	-0.223452717820864	-0.151083474447952	0.137927976173834	-0.213156123812053	0.121715664634149	0.00901562122807524	0.00901562122807524	0.00901562122807524	0.00901562122807524	0.00901562122807524	0.00901562122807524	0.00901562122807524	0.00901562122807524	0.00901562122807524	0.00901562122807524	0.00901562122807524	0.00901562122807524	0.287923392656740	-0.388751006699504	0.314617345434992	0.181315603403723	-0.0792784475706413	0.0475184211021099	0.208320651390302	-0.0100713960119384	-0.101872774362728	0.0736901072248137	-0.192262296399436	-0.0343653282524961	0.0535496839109488	0.0704589497412398	-0.0611117755033999	-0.548972674728843	0.240455437065162	-0.0179080444561361	-0.0179080444561361	-0.0179080444561361	-0.0179080444561361	-0.0179080444561361	-0.0179080444561361	-0.0179080444561361	-0.0179080444561361	-0.0179080444561361	-0.0179080444561361	-0.0179080444561361	-0.0179080444561361	0.632744201879529	-0.0192917479062046	0.286489823009222	0.326708036338033	-0.0220697690325780	-0.0924792789985982	0.0367707479267706	-0.0310949875889633	-0.205792874452392	-0.163765064914253	0.0490464607484214	-0.185167386681405	0.126798424171900	-0.120854110132201	0.0613883602830670	0.0309468036723459	0.183773050954356	0.0542698230018473	0.0542698230018473	0.0542698230018473	0.0542698230018473	0.0542698230018473	0.0542698230018473	0.0542698230018473	0.0542698230018473	0.0542698230018473	0.0542698230018473	0.0542698230018473	0.0542698230018473
0.112046194443407	-0.0312359475183466	0.00281320548460420	0.135183146060828	0.0177745563697047	-0.0447199751493956	0.366523205963545	-0.0905022948756975	-0.0312329693105785	0.169094540641472	-0.0920929766776761	-0.110397636182241	0.0736344866333379	-0.0967437203221054	0.247670474107371	-0.122171570354807	0.107147065730272	0.0340331783832631	0.0340331783832631	0.0340331783832631	0.0340331783832631	0.0340331783832631	0.0340331783832631	0.0340331783832631	0.0340331783832631	0.0340331783832631	0.0340331783832631	0.0340331783832631	0.0340331783832631	0.0500635894050161	0.0708807220428197	-0.135561447185128	-0.0689299364785154	0.281385857111751	-0.102886631391055	0.0507080173505308	-0.108351815196864	-0.0898564103219616	-0.102330499549018	-0.0353633052821346	-0.0358909933270531	0.236252290703493	-0.0332966343327024	-0.0126478785514396	-0.00685930893219376	0.102034408811892	-0.0290418310629145	-0.0290418310629145	-0.0290418310629145	-0.0290418310629145	-0.0290418310629145	-0.0290418310629145	-0.0290418310629145	-0.0290418310629145	-0.0290418310629145	-0.0290418310629145	-0.0290418310629145	-0.0290418310629145	-0.0326916475342651	-0.226917591576945	-0.0571553264339632	0.196445195813875	-0.371349330025355	-0.125860631912218	-0.115022858247132	-0.0750133662556949	-0.146310115782826	-0.105094650153945	-0.0840417989211807	-0.0268220682511194	0.104624176451545	0.0478668487958252	0.0441481324798750	-0.0857931168807673	0.0149629797242425	-0.0127274291599312	-0.0127274291599312	-0.0127274291599312	-0.0127274291599312	-0.0127274291599312	-0.0127274291599312	-0.0127274291599312	-0.0127274291599312	-0.0127274291599312	-0.0127274291599312	-0.0127274291599312	-0.0127274291599312	0.0751251134956738	0.224944146802129	0.0114622244243835	-0.222217438185227	0.0503689270737545	0.0104792517471233	0.0404228017198653	0.00509845003469861	0.0579135009468459	0.0981537887557864	0.0159998363169720	-0.0533412164569190	0.297634076929470	-0.0967638160390628	-0.0401831745456894	-0.0206552661642257	0.0423150209177625	0.0330744512936344	0.0330744512936344	0.0330744512936344	0.0330744512936344	0.0330744512936344	0.0330744512936344	0.0330744512936344	0.0330744512936344	0.0330744512936344	0.0330744512936344	0.0330744512936344	0.0330744512936344
-0.0326223781191031	-0.0889375824717181	-0.0527476790227991	-0.0536569858207324	0.0342232060852019	0.0110787429404268	0.140524398815456	0.247849214698584	0.209988158052433	0.0157476327856465	0.101106330250200	-0.0330711981670363	0.128505927640108	-0.0431416915220266	-0.218741918869201	0.0224398016860960	0.0319491850200741	0.0382098443938946	0.0382098443938946	0.0382098443938946	0.0382098443938946	0.0382098443938946	0.0382098443938946	0.0382098443938946	0.0382098443938946	0.0382098443938946	0.0382098443938946	0.0382098443938946	0.0382098443938946	0.232603092472108	0.113766826523103	0.0447166994968340	-0.0789864915073156	-0.0966121508417437	-0.0480901531004354	0.0955200532752110	1.27959319179138e-05	0.0646737953710237	-0.0196986997877866	0.108317022664066	-0.00505227241899688	0.0400019771824474	0.0604900022947064	-0.150141397715728	-0.0829603314603650	0.0715337185097030	0.0380044128273342	0.0380044128273342	0.0380044128273342	0.0380044128273342	0.0380044128273342	0.0380044128273342	0.0380044128273342	0.0380044128273342	0.0380044128273342	0.0380044128273342	0.0380044128273342	0.0380044128273342	-0.00767425909679045	-0.181232959697955	0.0958080970872519	0.0422098733728539	-0.164981002820746	-0.205883321418894	-0.105631590786509	-0.179029396768503	-0.148106299024385	0.00736661235993263	-0.172707701224261	-0.151760726026418	0.0372560801344135	0.0972526449194856	-0.203254059649223	-0.162387450162530	0.0927205231623772	0.0347553424753060	0.0347553424753060	0.0347553424753060	0.0347553424753060	0.0347553424753060	0.0347553424753060	0.0347553424753060	0.0347553424753060	0.0347553424753060	0.0347553424753060	0.0347553424753060	0.0347553424753060	0.368954801192878	0.0893432055303771	0.0969377385602836	0.150092391240898	-0.102894763161111	0.0462870645360421	-0.152116859608942	0.0149946932977981	-0.174455178610170	0.0756759392844756	0.141461317222989	0.0363650603279744	0.0191300055472510	0.0159704717167891	-0.115559966238980	0.0782097723758007	0.0919327998173280	0.0596439421249879	0.0596439421249879	0.0596439421249879	0.0596439421249879	0.0596439421249879	0.0596439421249879	0.0596439421249879	0.0596439421249879	0.0596439421249879	0.0596439421249879	0.0596439421249879	0.0596439421249879
0.0195311799817090	-0.0276998230521292	0.150284070858641	0.236542182927902	-0.0634609951461035	-0.0253770237339561	0.223530687755286	0.192346940912710	-0.372832793101183	-0.0708147902909791	-0.0463263907368648	-0.103002233964181	0.138774456324463	-0.00571649482880474	-0.152292400683145	-0.225029895934227	-0.0217884214919557	-0.0465122605892770	-0.0465122605892770	-0.0465122605892770	-0.0465122605892770	-0.0465122605892770	-0.0465122605892770	-0.0465122605892770	-0.0465122605892770	-0.0465122605892770	-0.0465122605892770	-0.0465122605892770	-0.0465122605892770	0.00151704138748617	0.0375933097323427	0.130200690361591	0.137854917670475	0.105455824355610	-0.228247128049212	-0.146710260121261	0.248985991765244	-0.124874477721850	-0.181790452255037	-0.0248667360098068	-0.152341860338639	-0.0603612238645973	-0.208824042453717	-0.00265906486331247	0.00440943657123908	0.108411566211445	0.0426467991840829	0.0426467991840829	0.0426467991840829	0.0426467991840829	0.0426467991840829	0.0426467991840829	0.0426467991840829	0.0426467991840829	0.0426467991840829	0.0426467991840829	0.0426467991840829	0.0426467991840829	0.0172157469777138	-0.0874502445684051	0.202456123768802	-0.0258358406060925	-0.0919715221214725	-0.129314054247360	-0.0328343090246298	-0.00924658568683180	-0.201320363858734	-0.0731846824854368	-0.0595718386344911	-0.0642076985555116	0.141084430830189	0.0506171102523766	-0.0187890545016289	-0.195186451596326	-0.125514066514195	-0.0358688407998724	-0.0358688407998724	-0.0358688407998724	-0.0358688407998724	-0.0358688407998724	-0.0358688407998724	-0.0358688407998724	-0.0358688407998724	-0.0358688407998724	-0.0358688407998724	-0.0358688407998724	-0.0358688407998724	0.148994435985198	0.0509060103033578	0.0158598496408551	-0.0350531323809574	-0.0568191611920164	-0.213057226643981	0.0357981619599272	0.282931393006128	-0.0465012771725448	0.0361237034483407	-0.00189313192432632	-0.152513911275780	0.142122412884193	-0.144340390474338	0.00802408262609029	0.0125767398191314	0.0624382900049070	0.0437190421393619	0.0437190421393619	0.0437190421393619	0.0437190421393619	0.0437190421393619	0.0437190421393619	0.0437190421393619	0.0437190421393619	0.0437190421393619	0.0437190421393619	0.0437190421393619	0.0437190421393619
0.0101456300641150	0.0271125683445604	0.101462157766886	0.00388238249313814	0.153982519951759	-0.0682890912718208	-0.00873258106190268	-0.0246146425397659	-0.0212167786129606	-0.0700332430917887	0.0136181528353402	0.0508566387424263	0.0315754977970661	0.0221077305281549	-0.0516859798093694	-0.0139565033356529	-0.00318473494765981	0.00853673408901422	0.00853673408901422	0.00853673408901422	0.00853673408901422	0.00853673408901422	0.00853673408901422	0.00853673408901422	0.00853673408901422	0.00853673408901422	0.00853673408901422	0.00853673408901422	0.00853673408901422	0.0612552767736514	0.0830085014605292	0.126469207878430	0.0375878405986454	0.0238964570771777	-0.000891124385110312	0.107877409397372	0.00345898708953459	-0.0161566108946975	0.0406403802059243	0.0162843383094471	-0.0678177234065022	0.0118822222106707	-0.0708215459918815	0.0141341576872699	-0.00490048533462799	0.0524653474620328	0.0231783985068545	0.0231783985068545	0.0231783985068545	0.0231783985068545	0.0231783985068545	0.0231783985068545	0.0231783985068545	0.0231783985068545	0.0231783985068545	0.0231783985068545	0.0231783985068545	0.0231783985068545	0.00722285739765087	0.0952869994261576	0.0967858017260358	-0.0580574801410195	-0.00531760558810604	0.0227579086397331	-0.0224953410998645	-0.00856457738830820	-0.100835614854980	-0.0109514734511052	-0.0426852639180220	-0.0913906476602031	0.0137489504531233	-0.0130562317605232	-0.00698171346030464	-0.0348883984304274	0.0556258979257222	-0.0196054568239568	-0.0196054568239568	-0.0196054568239568	-0.0196054568239568	-0.0196054568239568	-0.0196054568239568	-0.0196054568239568	-0.0196054568239568	-0.0196054568239568	-0.0196054568239568	-0.0196054568239568	-0.0196054568239568	0.0452696275623434	0.163732399063588	-0.000631377692528988	0.0792497823589143	0.174294024356511	0.0768448681419251	0.0113612046740888	-0.0271847167933932	-0.0899513392446902	0.0488360116558812	0.0239426569617427	-0.0382316347352640	0.0506695692960701	0.00197434367034853	0.0104880088452313	0.0146896820857598	0.0366996992183946	0.00926309122128521	0.00926309122128521	0.00926309122128521	0.00926309122128521	0.00926309122128521	0.00926309122128521	0.00926309122128521	0.00926309122128521	0.00926309122128521	0.00926309122128521	0.00926309122128521	0.00926309122128521
0.00269989031594645	0.0155819560029282	0.00503109117703790	0.0568755114566548	0.0482063117978473	-0.0135102884986086	-0.0189545631547323	0.0993924680759421	-0.0780481972695340	0.00453107518758283	-0.0354604115461828	0.135950989611604	-0.123509372922249	0.0562335461929374	-0.0444751058256928	0.0374416605431347	0.0817009864859007	0.000257101663482869	0.000257101663482869	0.000257101663482869	0.000257101663482869	0.000257101663482869	0.000257101663482869	0.000257101663482869	0.000257101663482869	0.000257101663482869	0.000257101663482869	0.000257101663482869	0.000257101663482869	0.0828262780936769	0.147681805024915	-0.0160402327353148	0.0769364669755421	-0.0114305158346402	0.0835151281731216	0.0214449072919325	0.104527691044150	0.00208573485301638	0.0317341993679142	-0.0363847706118056	-0.0336348038655626	-0.0625204064411440	-0.0281729463343110	-0.0258655684429269	0.00447639457512115	-0.0612238956718676	0.0166515861727356	0.0166515861727356	0.0166515861727356	0.0166515861727356	0.0166515861727356	0.0166515861727356	0.0166515861727356	0.0166515861727356	0.0166515861727356	0.0166515861727356	0.0166515861727356	0.0166515861727356	0.00700403288965815	0.0526661459890463	-0.0245006451439860	-0.0168621198626266	-0.208378319719110	-0.0183101696806412	-0.105038250442529	-0.0268228661361416	-0.0985970954690290	-0.0702207550110783	-0.0412199523926655	-0.0744998976586624	-0.00636427955329727	0.0299173464939796	-0.0303240270430416	0.0199178473508682	-0.0975117351626958	-0.00852604530967777	-0.00852604530967777	-0.00852604530967777	-0.00852604530967777	-0.00852604530967777	-0.00852604530967777	-0.00852604530967777	-0.00852604530967777	-0.00852604530967777	-0.00852604530967777	-0.00852604530967777	-0.00852604530967777	0.104580318970252	0.242086602177578	0.000751133447770105	0.00988386204115077	-0.211419087056635	-0.0171998598500216	-0.0169376053185005	-0.0313312947073390	-0.0244266322420210	0.119655582748804	-0.0731290517496254	-0.0560112255957207	-0.0309904013891924	-0.0120430843759369	0.0188200468816903	0.0410899523814872	-0.0533498041794806	0.00773224383419364	0.00773224383419364	0.00773224383419364	0.00773224383419364	0.00773224383419364	0.00773224383419364	0.00773224383419364	0.00773224383419364	0.00773224383419364	0.00773224383419364	0.00773224383419364	0.00773224383419364
-0.0255921188943428	-0.0330513794025564	0.0964458851540065	0.353676613346208	-0.00357943676694716	-0.0953580872060411	0.653965527037694	0.0368236031008673	-0.273957459953150	-0.153823366258690	0.100955824989577	0.0655314146318079	0.228645467865224	0.0947479260025248	-0.0436913509163810	-0.0967813679623101	0.111995921054833	-0.0142094695006151	-0.0142094695006151	-0.0142094695006151	-0.0142094695006151	-0.0142094695006151	-0.0142094695006151	-0.0142094695006151	-0.0142094695006151	-0.0142094695006151	-0.0142094695006151	-0.0142094695006151	-0.0142094695006151	0.0212761575637201	-0.0567904283813062	0.193795111431512	-0.0299431491400639	0.113735920414453	-0.0925388684295254	0.163366876079354	0.121118938391816	0.0764165950342861	0.0298075879424376	-0.0331537117574091	0.0353374657691547	-0.0949418157894248	-0.266781277325108	-0.00481679874761733	-0.178590987141972	0.136841479039377	0.0230198996991311	0.0230198996991311	0.0230198996991311	0.0230198996991311	0.0230198996991311	0.0230198996991311	0.0230198996991311	0.0230198996991311	0.0230198996991311	0.0230198996991311	0.0230198996991311	0.0230198996991311	0.0381387371976752	0.0236346045456926	0.226229556009977	0.0548949014787205	0.156416122287086	-0.0845496931727590	-0.119105804735633	-0.0502758744054423	-0.130306021463489	0.00642494626623626	-0.0652946660582415	0.0234294646355151	0.419054530986021	0.148215433027531	0.0915201341748272	-0.296867274300861	0.273966940224893	0.000115051107268851	0.000115051107268851	0.000115051107268851	0.000115051107268851	0.000115051107268851	0.000115051107268851	0.000115051107268851	0.000115051107268851	0.000115051107268851	0.000115051107268851	0.000115051107268851	0.000115051107268851	0.0374724417538294	0.0215417591781001	0.0182066018807791	0.0260082695843792	0.0519045044999621	-0.562336596625031	-0.0881024310082277	0.0507914269043553	-0.0266826256200620	-0.0744405852224797	0.0684170327132961	-0.179923603354992	0.102520739442763	-0.209053157169721	0.113476315288925	0.0439829658351515	0.200608143185980	0.0140088130204665	0.0140088130204665	0.0140088130204665	0.0140088130204665	0.0140088130204665	0.0140088130204665	0.0140088130204665	0.0140088130204665	0.0140088130204665	0.0140088130204665	0.0140088130204665	0.0140088130204665
-0.135295821104688	-0.0593124148573192	-0.0120142869854248	0.210186095240778	0.419084244236846	-0.389077923412140	0.205694979914199	-0.798454098363797	0.307386592013613	0.210880497593279	-0.0746260169568230	-0.183339325085040	-0.294700895076038	-0.234157447817281	-0.281005785925461	-0.218669782409591	0.393500001603378	0.00672034885164539	0.00672034885164539	0.00672034885164539	0.00672034885164539	0.00672034885164539	0.00672034885164539	0.00672034885164539	0.00672034885164539	0.00672034885164539	0.00672034885164539	0.00672034885164539	0.00672034885164539	-0.112365921958707	0.0463464429890846	0.145298702498749	0.122624539451418	-0.187896233429001	-0.251145551887480	-0.111643306559394	-0.142170483369409	-0.113537595133668	0.182065954383878	-0.0529331990520055	-0.157122309906947	-0.269745506914995	0.0616233320055891	-0.383933326176399	-0.201258123437422	0.104176681977431	-0.000718348276439074	-0.000718348276439074	-0.000718348276439074	-0.000718348276439074	-0.000718348276439074	-0.000718348276439074	-0.000718348276439074	-0.000718348276439074	-0.000718348276439074	-0.000718348276439074	-0.000718348276439074	-0.000718348276439074	0.163702636247146	0.140793768420775	0.130134105621585	-0.303175144043160	-0.275375978630753	-0.121330476188262	0.0730391881459403	0.213334999427212	-0.254186369692545	-0.126185058209886	0.0964186585074994	0.117314278415254	-0.00460187774340781	0.0815944326167966	-0.330760223473936	-0.241331385934674	0.0176116080700585	-0.0228253140613468	-0.0228253140613468	-0.0228253140613468	-0.0228253140613468	-0.0228253140613468	-0.0228253140613468	-0.0228253140613468	-0.0228253140613468	-0.0228253140613468	-0.0228253140613468	-0.0228253140613468	-0.0228253140613468	-0.350498357165236	-0.250739683115376	-0.220455347113299	-0.143311713119284	0.131580446745273	-0.0648817049660800	-0.228558272870399	0.169172544670791	0.258906425955969	0.0633903020822524	0.113740739735036	0.178722591169142	-0.0245388608979320	0.174479153195584	0.0313109608731576	-0.125079828594633	0.196409849479146	-0.00409846631538096	-0.00409846631538096	-0.00409846631538096	-0.00409846631538096	-0.00409846631538096	-0.00409846631538096	-0.00409846631538096	-0.00409846631538096	-0.00409846631538096	-0.00409846631538096	-0.00409846631538096	-0.00409846631538096
0.0697369386987705	-0.00908967589463469	-0.0315163230189328	-0.108287218158891	0.147437432387637	0.0157835385121201	-0.143866896536512	-0.491477494981685	0.240445667830196	0.0510352913686548	-0.0129843988378824	-0.0582359532299660	-0.102762850907895	-0.217399389148912	-0.165012450655770	0.0250614072402045	0.179226662909645	-0.0625984902361563	-0.0625984902361563	-0.0625984902361563	-0.0625984902361563	-0.0625984902361563	-0.0625984902361563	-0.0625984902361563	-0.0625984902361563	-0.0625984902361563	-0.0625984902361563	-0.0625984902361563	-0.0625984902361563	0.225694335738229	-0.0231203299767946	0.0602375085047673	-0.0974194596952036	0.00593106811434311	0.175646306258587	-0.166251373073888	-0.0437143646362940	-0.149384227691038	0.0899891921204561	0.190311488996772	-0.0553965122589442	0.0999218969636936	0.185815318439567	0.0651793341474753	0.0756338063547590	0.0631848630502131	-0.00852842097096675	-0.00852842097096675	-0.00852842097096675	-0.00852842097096675	-0.00852842097096675	-0.00852842097096675	-0.00852842097096675	-0.00852842097096675	-0.00852842097096675	-0.00852842097096675	-0.00852842097096675	-0.00852842097096675	0.0787623393990113	-0.0479604291121306	0.243353327560960	-0.260716781854902	0.129471021244997	-0.125378116250831	-0.154107904546556	0.189460989580855	-0.0228111391408019	-0.0630377189119567	0.325364392089185	0.141707806200876	-0.123645751096380	-0.0674680463627385	-0.192368776187810	-0.222148955877598	-0.0569950785426922	-0.00683408998729643	-0.00683408998729643	-0.00683408998729643	-0.00683408998729643	-0.00683408998729643	-0.00683408998729643	-0.00683408998729643	-0.00683408998729643	-0.00683408998729643	-0.00683408998729643	-0.00683408998729643	-0.00683408998729643	0.124376883466017	-0.298660058628751	-0.0712225256498437	0.103774230322656	-0.000887140498030625	-0.116398202088222	-0.0941885017356548	-0.158952580136449	-0.0691446870198736	0.257255712091727	0.214347888853350	0.0665608471421865	-0.122537441235787	0.103789561441394	-0.0765746008277403	-0.0365504979825844	0.118123356714676	0.0229269430108020	0.0229269430108020	0.0229269430108020	0.0229269430108020	0.0229269430108020	0.0229269430108020	0.0229269430108020	0.0229269430108020	0.0229269430108020	0.0229269430108020	0.0229269430108020	0.0229269430108020
-0.0861275194027379	-0.0591410748386574	-0.231273352176567	-0.00243418703514279	0.300118058491836	0.144302803244462	0.340876219078291	-0.503669626633485	0.394474517012858	0.0603812585256355	0.441289717949442	-0.129862072563012	-0.0148336625648349	-0.107382224651417	-0.296462663388734	-0.263074133144296	0.309781821692191	0.00850773750175667	0.00850773750175667	0.00850773750175667	0.00850773750175667	0.00850773750175667	0.00850773750175667	0.00850773750175667	0.00850773750175667	0.00850773750175667	0.00850773750175667	0.00850773750175667	0.00850773750175667	0.137841498299155	0.0879506565158905	0.0663952315556447	0.0928034495286517	-0.0116925317829884	0.0448419672295058	-0.201387048265497	-0.265109771037420	-0.00876297807489244	0.205826448521442	0.0993876302061499	-0.00444222085694032	-0.0191091317545690	0.0208018887725782	0.0745834193296481	-0.0699371404946329	0.0417971314076971	-0.00440127804963382	-0.00440127804963382	-0.00440127804963382	-0.00440127804963382	-0.00440127804963382	-0.00440127804963382	-0.00440127804963382	-0.00440127804963382	-0.00440127804963382	-0.00440127804963382	-0.00440127804963382	-0.00440127804963382	0.00305005723714450	0.0728557815649428	-0.0492269496610855	0.0415558800054903	0.00464046129223416	-0.130227094015285	-0.0486271074898686	-0.0375385516647282	0.187568655740424	-0.139204311442881	0.496673715856887	-0.0398863054971412	-0.0840645359337483	0.0675682852835942	0.0380099628780180	-0.0965191510220869	0.0884797426697322	-0.00419579581760315	-0.00419579581760315	-0.00419579581760315	-0.00419579581760315	-0.00419579581760315	-0.00419579581760315	-0.00419579581760315	-0.00419579581760315	-0.00419579581760315	-0.00419579581760315	-0.00419579581760315	-0.00419579581760315	-0.0315292669780385	-0.196838985624489	-0.163800818234729	-0.224361240934420	0.0971217113953356	0.411196846833123	-0.190475982131872	-0.0738106365676579	-0.0702912499519661	0.289921755532359	0.0586647946421225	-0.0259911132754789	0.0292129631960324	0.0522815391545712	0.0611232139724432	0.0439642832534261	0.245042356899951	-0.0219548405498328	-0.0219548405498328	-0.0219548405498328	-0.0219548405498328	-0.0219548405498328	-0.0219548405498328	-0.0219548405498328	-0.0219548405498328	-0.0219548405498328	-0.0219548405498328	-0.0219548405498328	-0.0219548405498328
-0.0339451998883365	-0.112508535808885	-0.0225668488211250	-0.0247867679785604	0.0697698160400896	-0.0789665877247302	0.420784797981771	-0.286681855828136	0.211967396419092	0.123322205785808	-0.00855920064321068	-0.119635754631089	-0.172104489742098	-0.100924963641389	-0.277189121078260	-0.0266941523524819	-0.000611052710092789	-0.0261023663671260	-0.0261023663671260	-0.0261023663671260	-0.0261023663671260	-0.0261023663671260	-0.0261023663671260	-0.0261023663671260	-0.0261023663671260	-0.0261023663671260	-0.0261023663671260	-0.0261023663671260	-0.0261023663671260	0.156670487003481	0.0457348330113104	0.0352205878175831	0.0255651493117410	-0.187155623279105	-0.126396060899858	-0.141980950544517	-0.163781683779345	-0.0905563416314009	-0.0842036314643284	-0.0268250476373797	-0.149451688346499	-0.0439185569952154	-0.0903102686173692	-0.153660812415503	-0.0558120591246472	0.0479131913918101	-0.00680043231779891	-0.00680043231779891	-0.00680043231779891	-0.00680043231779891	-0.00680043231779891	-0.00680043231779891	-0.00680043231779891	-0.00680043231779891	-0.00680043231779891	-0.00680043231779891	-0.00680043231779891	-0.00680043231779891	0.0819647653899967	-0.0672844894567626	0.0983276401588262	-0.0257164813370169	0.0363254229685525	-0.212871049961730	-0.0858995596736881	0.0181005445262033	0.0502104042031196	-0.0260150594709672	-0.00195440042498523	0.0199074573287406	0.0254648451446059	-0.0316471369422945	-0.0298986219595218	-0.0544355096986759	0.164821769279845	0.0226195034991755	0.0226195034991755	0.0226195034991755	0.0226195034991755	0.0226195034991755	0.0226195034991755	0.0226195034991755	0.0226195034991755	0.0226195034991755	0.0226195034991755	0.0226195034991755	0.0226195034991755	0.0364347061495058	-0.237637658839358	-0.366367415228249	-0.0254835421678579	0.0636539165727698	0.0243067286848133	-0.0317032848577202	-0.133543275459784	-0.0584668978275558	0.145827954057835	0.199200451092730	-0.157312276750754	-0.0219445261301380	0.117286149318271	-0.0172096925579813	-0.0926303605157696	0.158234772812440	0.00387870168213077	0.00387870168213077	0.00387870168213077	0.00387870168213077	0.00387870168213077	0.00387870168213077	0.00387870168213077	0.00387870168213077	0.00387870168213077	0.00387870168213077	0.00387870168213077	0.00387870168213077
-0.0788642112085765	-0.0635989518903334	0.0298188126660836	-0.0315685867701040	0.170040435060773	-0.128599426255087	0.348466349067016	-0.385765896103681	0.347271163143957	0.0793081913819601	0.192142746405888	-0.289059185168943	-0.166219649370074	0.0872309693370772	0.175364225451638	0.109969166986880	0.200881064187938	-0.0624024259081199	-0.0624024259081199	-0.0624024259081199	-0.0624024259081199	-0.0624024259081199	-0.0624024259081199	-0.0624024259081199	-0.0624024259081199	-0.0624024259081199	-0.0624024259081199	-0.0624024259081199	-0.0624024259081199	0.194680715238876	0.0923379615918146	0.216940389496341	-0.0749987447690406	0.135720419609802	0.0277281637254595	-0.0303011488602227	0.0849745734503583	-0.114186195449394	0.100998585566186	-0.00185305314758517	-0.00491833249748996	0.0786829984626311	-0.0926563414569999	0.0139503087616849	-0.0863539808053423	0.0601298000088589	0.0482585706700686	0.0482585706700686	0.0482585706700686	0.0482585706700686	0.0482585706700686	0.0482585706700686	0.0482585706700686	0.0482585706700686	0.0482585706700686	0.0482585706700686	0.0482585706700686	0.0482585706700686	-0.112911582316317	0.247436214408793	-0.127489203321800	-0.0931038207114801	-0.0740930411043948	-0.0155188948429459	0.209757152084013	-0.0342369720070783	-0.228716914278901	-0.114480536064897	0.0932357492364783	-0.142611762311565	-0.0810695233507659	0.0960726045863555	0.114096379197007	-0.0753206400218903	-0.0404270348557967	-0.0485064233874876	-0.0485064233874876	-0.0485064233874876	-0.0485064233874876	-0.0485064233874876	-0.0485064233874876	-0.0485064233874876	-0.0485064233874876	-0.0485064233874876	-0.0485064233874876	-0.0485064233874876	-0.0485064233874876	-0.212798358968497	-0.125704032720693	-0.123544334933292	0.127207706565573	0.187380584855310	0.0406647995312947	0.0154264293017945	0.0605903150650753	-0.179159151665285	-0.106738375017445	0.0412073208428518	-0.109715849244434	-0.0708756592587547	0.0722290739964819	0.0858185771302339	-0.0567073540389506	-0.0732751064326618	0.0554432032416365	0.0554432032416365	0.0554432032416365	0.0554432032416365	0.0554432032416365	0.0554432032416365	0.0554432032416365	0.0554432032416365	0.0554432032416365	0.0554432032416365	0.0554432032416365	0.0554432032416365
0.143839836738004	0.260269957798677	-0.0344214011420181	0.218857118883398	0.364812808174771	0.137590322554765	0.564314089292353	-0.291724643765637	0.712564557193883	-0.248323670740434	-0.0108702196795125	0.149608030917112	-0.486473331680292	-0.518909308083112	-0.526673722493679	0.195451126143233	0.134375328084158	0.0286388527401786	0.0286388527401786	0.0286388527401786	0.0286388527401786	0.0286388527401786	0.0286388527401786	0.0286388527401786	0.0286388527401786	0.0286388527401786	0.0286388527401786	0.0286388527401786	0.0286388527401786	0.000971286450842140	-0.0106517740165114	0.0716683936873325	0.172240193131002	-0.200145562099709	0.265920964732344	0.0440480616205095	-0.191463496254984	0.0496459268867957	0.00244631404632507	-0.0436900225858514	0.0204774426561279	-0.0366637067923864	-0.417507122995680	-0.000270675653242729	0.271674221597843	-0.387068749759200	0.0528970350448298	0.0528970350448298	0.0528970350448298	0.0528970350448298	0.0528970350448298	0.0528970350448298	0.0528970350448298	0.0528970350448298	0.0528970350448298	0.0528970350448298	0.0528970350448298	0.0528970350448298	-0.0911045402158511	0.137700820100171	-0.0582934109452214	-0.0121545440241392	-0.331320213406258	-0.0706023227073669	0.0979713910215757	0.301702009373019	0.543135739652455	-0.335678229403184	0.124511845532504	0.202235122774122	-0.217096943626374	0.442372205316494	-0.205556305549333	-0.342338376609589	0.132223261738926	0.0591349820811235	0.0591349820811235	0.0591349820811235	0.0591349820811235	0.0591349820811235	0.0591349820811235	0.0591349820811235	0.0591349820811235	0.0591349820811235	0.0591349820811235	0.0591349820811235	0.0591349820811235	-0.0585892740763267	-0.0677121007261036	0.0395443966078136	-0.135768663255811	0.101330880514097	-0.130586256974422	-0.500723539370339	-0.242084977410548	0.227751425368707	0.0706542960860427	0.253468840352169	0.0300223321076602	0.295627626975829	-0.439034714866034	0.213901773227003	0.197353270067296	0.340352308414744	-0.00947633988043259	-0.00947633988043259	-0.00947633988043259	-0.00947633988043259	-0.00947633988043259	-0.00947633988043259	-0.00947633988043259	-0.00947633988043259	-0.00947633988043259	-0.00947633988043259	-0.00947633988043259	-0.00947633988043259
-0.351026128968148	-0.0207522873340981	-0.331904200431661	0.684050869693318	0.455250549346000	-0.646586280164429	0.613561150844145	-0.191085746303979	0.764590766567208	0.471959286296820	-0.482683699500485	-0.240879950013644	0.0842296064610211	-0.326820078951852	-0.220581537121648	0.200818301715199	0.419829554431920	-0.112457254116679	-0.112457254116679	-0.112457254116679	-0.112457254116679	-0.112457254116679	-0.112457254116679	-0.112457254116679	-0.112457254116679	-0.112457254116679	-0.112457254116679	-0.112457254116679	-0.112457254116679	-0.197261155564861	-0.403980672884731	-0.0245735820644185	-0.543104910670862	0.625582727975774	-0.105404658923772	0.0742649956681791	0.350952584351405	-0.163766514497967	0.308262890906404	-0.219735867059865	-0.0744424947498659	0.114424453788762	-0.478693376755334	0.716093117244150	-0.0252537114407931	-0.401559971590810	0.0136733087412427	0.0136733087412427	0.0136733087412427	0.0136733087412427	0.0136733087412427	0.0136733087412427	0.0136733087412427	0.0136733087412427	0.0136733087412427	0.0136733087412427	0.0136733087412427	0.0136733087412427	-0.0734113495850131	0.213982764502814	0.760744481785552	-0.711214056493441	0.610087206950751	-0.157691745504983	0.990344270454883	-0.276226876919462	-0.241562910341544	-0.00436773563194315	0.849492196375565	-0.339426498275978	0.504301922757806	0.503213657481155	-0.782032100476350	-0.395042170851408	-0.399120326005829	0.133134152635036	0.133134152635036	0.133134152635036	0.133134152635036	0.133134152635036	0.133134152635036	0.133134152635036	0.133134152635036	0.133134152635036	0.133134152635036	0.133134152635036	0.133134152635036	0.138953654171891	-0.474134108428879	-0.439989332580624	-0.539303393731641	-0.284718015717449	-0.0701985994980854	-0.573784366738843	-0.400603722380849	-0.227270062831576	0.0777789139284045	-0.0555122946787212	0.919259246397280	0.0524802210447631	-0.457638253782634	-0.153121372907022	0.0338543847256786	0.884641247384817	-0.0755653588436409	-0.0755653588436409	-0.0755653588436409	-0.0755653588436409	-0.0755653588436409	-0.0755653588436409	-0.0755653588436409	-0.0755653588436409	-0.0755653588436409	-0.0755653588436409	-0.0755653588436409	-0.0755653588436409
0.636737071862590	0.371906595952182	-0.292214119956531	0.578423560232805	0.998584048398492	0.342199391225790	0.0339926358841753	-0.371213658663804	0.770037751704654	0.155491645446587	0.375875711155870	-0.629459824634397	-0.171301692393144	-0.755935379661695	0.288526401006056	-0.230956558272136	0.363231793013542	0.0313032802582950	0.0313032802582950	0.0313032802582950	0.0313032802582950	0.0313032802582950	0.0313032802582950	0.0313032802582950	0.0313032802582950	0.0313032802582950	0.0313032802582950	0.0313032802582950	0.0313032802582950	-0.608839698305940	-0.0168240700851141	0.640174769571281	-0.993171125332699	1.03207183930704	0.332054566720670	-0.321257546186266	0.344164809233093	-0.443812852603970	-0.00799964955479404	0.0852102062283363	-0.501353013030684	-0.101598307247390	-0.283447167733809	-0.0701616005956611	0.0299470328783183	0.370338688104905	0.0353641731632325	0.0353641731632325	0.0353641731632325	0.0353641731632325	0.0353641731632325	0.0353641731632325	0.0353641731632325	0.0353641731632325	0.0353641731632325	0.0353641731632325	0.0353641731632325	0.0353641731632325	0.222751604644367	0.264433639183950	-0.318131935702001	-0.0901126127435165	-0.524369909383907	-0.459400499971509	-0.331729302807695	0.738788528421484	-0.154502319383179	-0.357085497521291	0.215538251416508	-0.137656170047715	-0.279898576378528	0.00710610298692777	0.166346774568504	0.253787692575795	0.327079235829441	-0.0909412692773356	-0.0909412692773356	-0.0909412692773356	-0.0909412692773356	-0.0909412692773356	-0.0909412692773356	-0.0909412692773356	-0.0909412692773356	-0.0909412692773356	-0.0909412692773356	-0.0909412692773356	-0.0909412692773356	-0.0649146811626511	-0.433938261529761	-0.0723381968037160	-0.300445785438838	0.0492320216681775	0.337992310600373	-0.591349434180629	-0.393530935509605	-0.101384173513425	0.516000829951827	0.952660204834040	-0.340155616287737	-0.204200407637259	0.110853220894098	0.102675251752993	-0.519396244857193	0.293056521512177	0.0357266460293352	0.0357266460293352	0.0357266460293352	0.0357266460293352	0.0357266460293352	0.0357266460293352	0.0357266460293352	0.0357266460293352	0.0357266460293352	0.0357266460293352	0.0357266460293352	0.0357266460293352
-0.0674038521279114	-0.0267865536665086	-0.0860282326587287	0.0641625132161818	0.326472549254790	0.0429804199486219	0.547298437648525	-0.224478266662852	0.698093019101098	0.0437047414579743	0.411998304628116	-0.238223963455529	-0.241158022710276	0.00504648524627795	-0.353543699699174	-0.213699490424200	0.0604075055030328	0.0867797922722788	0.0867797922722788	0.0867797922722788	0.0867797922722788	0.0867797922722788	0.0867797922722788	0.0867797922722788	0.0867797922722788	0.0867797922722788	0.0867797922722788	0.0867797922722788	0.0867797922722788	-0.0307142632827421	-0.0264779038712207	0.0960701387382827	-0.366780440155292	0.132108535494825	0.372026623960903	0.0558854093633191	-0.0662301052943926	-0.230515592962029	0.201180606975934	0.177307091046898	-0.368593378820856	-0.000316192490552356	0.0824685486785409	-0.0377167949974079	-0.121061973114815	0.207003185553478	-0.0197455093238178	-0.0197455093238178	-0.0197455093238178	-0.0197455093238178	-0.0197455093238178	-0.0197455093238178	-0.0197455093238178	-0.0197455093238178	-0.0197455093238178	-0.0197455093238178	-0.0197455093238178	-0.0197455093238178	-0.165219722474996	-0.0680668596901190	-0.0772643618467288	0.0314604351908529	0.0181426911280536	0.0589455948742871	-0.0518122868612795	-0.0880113621283131	0.200520162799747	-0.130824753616571	0.100092673269322	-0.167306967263271	-0.0787993964269346	0.0803704010184665	0.149676359049138	-0.0985960907718256	0.492955430844793	0.00966901093684190	0.00966901093684190	0.00966901093684190	0.00966901093684190	0.00966901093684190	0.00966901093684190	0.00966901093684190	0.00966901093684190	0.00966901093684190	0.00966901093684190	0.00966901093684190	0.00966901093684190	-0.0634539407819747	-0.143359391419317	-0.0276207316823533	0.0146255790549828	-0.152492212846642	0.0807068452647307	-0.148078763128142	-0.191590712187536	-0.104849833290015	0.386405033791363	0.348164505832801	0.0302306029776491	0.216807027126696	-0.0816686844217439	0.160761605051532	-0.115861670045729	0.380290473308770	-0.0349532089248310	-0.0349532089248310	-0.0349532089248310	-0.0349532089248310	-0.0349532089248310	-0.0349532089248310	-0.0349532089248310	-0.0349532089248310	-0.0349532089248310	-0.0349532089248310	-0.0349532089248310	-0.0349532089248310
-0.00141521296301283	0.0104844594439536	-0.0515656515866696	0.0149447672337388	-0.0313692028445403	0.0885969444786607	-0.0276158514356441	-0.157624010477986	0.272928576016391	-0.0421259621495985	0.0164314033780437	-0.120829097727440	-0.0774201606129094	-0.0379434927203652	0.00125853368107607	0.0110055271159358	-0.199442908346609	-0.0339807127474780	-0.0339807127474780	-0.0339807127474780	-0.0339807127474780	-0.0339807127474780	-0.0339807127474780	-0.0339807127474780	-0.0339807127474780	-0.0339807127474780	-0.0339807127474780	-0.0339807127474780	-0.0339807127474780	0.0387251976351903	0.0433704871640152	0.132277241600627	-0.161397064894953	-0.0634563973688434	-0.247938491383752	-0.174346554917177	-0.167458732919850	-0.0955725139299121	0.0927186423330322	0.0583671279493302	0.0952430955692496	0.0641439683434955	0.206595577816970	0.103250369718481	0.0444554273570485	0.0367866247389533	-0.00124353532564452	-0.00124353532564452	-0.00124353532564452	-0.00124353532564452	-0.00124353532564452	-0.00124353532564452	-0.00124353532564452	-0.00124353532564452	-0.00124353532564452	-0.00124353532564452	-0.00124353532564452	-0.00124353532564452	0.0690455016587787	0.131714457339569	0.0135706684712046	0.0167231907380803	0.0863839343307285	0.0317610829346861	0.0866610059853787	0.0187523158237100	-0.132480430973878	-0.0268113235242012	0.208179312748462	-0.134353880071432	-0.0426611203293587	0.0281102899598161	-0.0191223156457956	-0.129890180984192	0.104264383769392	-0.0192946734363785	-0.0192946734363785	-0.0192946734363785	-0.0192946734363785	-0.0192946734363785	-0.0192946734363785	-0.0192946734363785	-0.0192946734363785	-0.0192946734363785	-0.0192946734363785	-0.0192946734363785	-0.0192946734363785	0.132378774027126	-0.0710121796331145	0.132603404564963	0.0729661214865356	0.115510225495921	0.110322109326685	-0.0697383129970368	-0.135632315191983	-0.129173250342681	-0.0695233562117203	0.0409686603527087	0.0239720517756781	0.0675225137894848	-0.0293676301502016	-0.0202012248107786	-0.0914051953927262	0.0252462974928833	0.0186988110294520	0.0186988110294520	0.0186988110294520	0.0186988110294520	0.0186988110294520	0.0186988110294520	0.0186988110294520	0.0186988110294520	0.0186988110294520	0.0186988110294520	0.0186988110294520	0.0186988110294520
0.134670893346150	0.0351262646666790	0.0898733151508181	0.00721359975423304	-0.149634558621839	0.000660893336175865	0.305333707353870	-0.129921521015125	0.329124426957990	-0.0504711732162741	0.174554624730838	-0.0168370262996337	0.0688376550410545	0.0666303577865342	0.0287668595051948	0.234489978903940	0.190729158638116	-0.0337260513403389	-0.0337260513403389	-0.0337260513403389	-0.0337260513403389	-0.0337260513403389	-0.0337260513403389	-0.0337260513403389	-0.0337260513403389	-0.0337260513403389	-0.0337260513403389	-0.0337260513403389	-0.0337260513403389	0.224197890535907	0.0728569664842750	0.0126085155096896	-0.107971419380248	-0.141312320971703	-0.0923008424944456	-0.0449977515043477	0.0502878924026803	-0.0282010902346105	-0.0329835451697983	0.202172012306283	-0.158497678684191	-0.124951369588846	-0.116093933864436	-0.109411151679911	-0.151069840869073	-0.0811740822974053	0.00440282931579314	0.00440282931579314	0.00440282931579314	0.00440282931579314	0.00440282931579314	0.00440282931579314	0.00440282931579314	0.00440282931579314	0.00440282931579314	0.00440282931579314	0.00440282931579314	0.00440282931579314	0.0933732748529498	-0.175523502706772	0.168248960643884	-0.00444162634503961	-0.0903040493240045	-0.464422575266683	0.132044009222874	0.104975298189666	0.0728166129742259	0.00905872583353944	0.0764555574847995	-0.00206221217111969	0.0441594965476404	-0.109236811514138	0.0301637294927321	-0.233082498902801	-0.142746553264895	-0.0101063100439938	-0.0101063100439938	-0.0101063100439938	-0.0101063100439938	-0.0101063100439938	-0.0101063100439938	-0.0101063100439938	-0.0101063100439938	-0.0101063100439938	-0.0101063100439938	-0.0101063100439938	-0.0101063100439938	0.120459568706953	-0.0490274553919595	0.0207064662419547	-0.0386995650337944	0.0994299027392353	-0.328640692141419	-0.172742718819985	-0.0588779607234952	-0.0324786173108261	-0.0685651762422478	0.311921262106790	-0.0485026986244746	-0.0943711677769218	0.0469390269076242	-0.195980235780707	-0.0407171006701800	0.285305734782142	0.0187505347791495	0.0187505347791495	0.0187505347791495	0.0187505347791495	0.0187505347791495	0.0187505347791495	0.0187505347791495	0.0187505347791495	0.0187505347791495	0.0187505347791495	0.0187505347791495	0.0187505347791495
0.0315572341961880	0.120989897722087	-0.343877916611983	-0.0130774735803336	-0.138462996060711	0.578864070015248	0.628913524696632	-0.358820678118494	0.224640654929182	0.0786062659075214	0.0792490976770682	-0.0645667250546519	0.0476942132620536	-0.398972595963577	-0.461653376085315	0.0428297916880574	0.0686067916299613	0.0750789180750967	0.0750789180750967	0.0750789180750967	0.0750789180750967	0.0750789180750967	0.0750789180750967	0.0750789180750967	0.0750789180750967	0.0750789180750967	0.0750789180750967	0.0750789180750967	0.0750789180750967	-0.121417062672495	-0.233845874820778	0.403449431435381	-0.168410390974941	0.103302755002127	-0.141963470930884	0.0661028421603389	-0.496207064898433	-0.275991677410975	0.0676559402818762	-0.00136109193488860	-0.0977903946505768	0.0237951468051045	0.297979769054285	-0.0126863007518361	-0.0621019530225208	0.0445329600077848	0.0526430166534769	0.0526430166534769	0.0526430166534769	0.0526430166534769	0.0526430166534769	0.0526430166534769	0.0526430166534769	0.0526430166534769	0.0526430166534769	0.0526430166534769	0.0526430166534769	0.0526430166534769	-0.0920072816952648	0.0979810204986073	-0.0382777329442236	0.111521738568012	-0.216473332559669	0.326949761286543	0.320606193568330	0.0313445334449851	0.0474459913583371	-0.107351800975618	0.496915135415604	-0.423114346310392	-0.280417988266474	0.171885239083460	-0.331914133856811	-0.0634687794046733	-0.0693458327717065	-0.0210346600660436	-0.0210346600660436	-0.0210346600660436	-0.0210346600660436	-0.0210346600660436	-0.0210346600660436	-0.0210346600660436	-0.0210346600660436	-0.0210346600660436	-0.0210346600660436	-0.0210346600660436	-0.0210346600660436	-0.123749462201244	-0.730338863711676	-0.248550461646712	-0.403931994583265	-0.271507197727702	-0.0566026767498139	-0.182275226724407	-0.318737728301956	-0.00605387926738239	0.214202634955030	0.353396657507945	0.276773437029997	0.0266215247151922	0.309126545953376	0.174449104653153	0.0678800940227185	0.660965428088188	-0.0843325965063090	-0.0843325965063090	-0.0843325965063090	-0.0843325965063090	-0.0843325965063090	-0.0843325965063090	-0.0843325965063090	-0.0843325965063090	-0.0843325965063090	-0.0843325965063090	-0.0843325965063090	-0.0843325965063090
